digraph Tree {
node [shape=box] ;
0 [label="X[2] <= 5119.0\ngini = 0.365\nsamples = 24420\nvalue = [18562, 5858]"] ;
1 [label="X[0] <= 29.5\ngini = 0.325\nsamples = 23258\nvalue = [18503, 4755]"] ;
0 -> 1 [labeldistance=2.5, labelangle=45, headlabel="True"] ;
2 [label="X[0] <= 25.5\ngini = 0.086\nsamples = 7186\nvalue = [6861, 325]"] ;
1 -> 2 ;
3 [label="X[0] <= 23.5\ngini = 0.029\nsamples = 4760\nvalue = [4691, 69]"] ;
2 -> 3 ;
4 [label="X[3] <= 1824.5\ngini = 0.009\nsamples = 3569\nvalue = [3553, 16]"] ;
3 -> 4 ;
5 [label="X[0] <= 21.5\ngini = 0.008\nsamples = 3553\nvalue = [3539, 14]"] ;
4 -> 5 ;
6 [label="X[4] <= 0.5\ngini = 0.003\nsamples = 2323\nvalue = [2320, 3]"] ;
5 -> 6 ;
7 [label="X[0] <= 20.5\ngini = 0.105\nsamples = 18\nvalue = [17, 1]"] ;
6 -> 7 ;
8 [label="gini = 0.0\nsamples = 12\nvalue = [12, 0]"] ;
7 -> 8 ;
9 [label="X[1] <= 9.0\ngini = 0.278\nsamples = 6\nvalue = [5, 1]"] ;
7 -> 9 ;
10 [label="X[5] <= 0.5\ngini = 0.5\nsamples = 2\nvalue = [1, 1]"] ;
9 -> 10 ;
11 [label="gini = 0.0\nsamples = 1\nvalue = [0, 1]"] ;
10 -> 11 ;
12 [label="gini = 0.0\nsamples = 1\nvalue = [1, 0]"] ;
10 -> 12 ;
13 [label="gini = 0.0\nsamples = 4\nvalue = [4, 0]"] ;
9 -> 13 ;
14 [label="X[6] <= 26.5\ngini = 0.002\nsamples = 2305\nvalue = [2303, 2]"] ;
6 -> 14 ;
15 [label="X[0] <= 20.5\ngini = 0.015\nsamples = 135\nvalue = [134, 1]"] ;
14 -> 15 ;
16 [label="gini = 0.0\nsamples = 96\nvalue = [96, 0]"] ;
15 -> 16 ;
17 [label="X[6] <= 24.5\ngini = 0.05\nsamples = 39\nvalue = [38, 1]"] ;
15 -> 17 ;
18 [label="gini = 0.0\nsamples = 21\nvalue = [21, 0]"] ;
17 -> 18 ;
19 [label="X[1] <= 9.5\ngini = 0.105\nsamples = 18\nvalue = [17, 1]"] ;
17 -> 19 ;
20 [label="gini = 0.0\nsamples = 9\nvalue = [9, 0]"] ;
19 -> 20 ;
21 [label="X[1] <= 12.0\ngini = 0.198\nsamples = 9\nvalue = [8, 1]"] ;
19 -> 21 ;
22 [label="gini = 0.375\nsamples = 4\nvalue = [3, 1]"] ;
21 -> 22 ;
23 [label="gini = 0.0\nsamples = 5\nvalue = [5, 0]"] ;
21 -> 23 ;
24 [label="X[1] <= 5.5\ngini = 0.001\nsamples = 2170\nvalue = [2169, 1]"] ;
14 -> 24 ;
25 [label="X[1] <= 4.5\ngini = 0.003\nsamples = 583\nvalue = [582, 1]"] ;
24 -> 25 ;
26 [label="gini = 0.0\nsamples = 570\nvalue = [570, 0]"] ;
25 -> 26 ;
27 [label="X[0] <= 19.5\ngini = 0.142\nsamples = 13\nvalue = [12, 1]"] ;
25 -> 27 ;
28 [label="X[0] <= 18.5\ngini = 0.219\nsamples = 8\nvalue = [7, 1]"] ;
27 -> 28 ;
29 [label="gini = 0.0\nsamples = 4\nvalue = [4, 0]"] ;
28 -> 29 ;
30 [label="X[3] <= 801.0\ngini = 0.375\nsamples = 4\nvalue = [3, 1]"] ;
28 -> 30 ;
31 [label="gini = 0.444\nsamples = 3\nvalue = [2, 1]"] ;
30 -> 31 ;
32 [label="gini = 0.0\nsamples = 1\nvalue = [1, 0]"] ;
30 -> 32 ;
33 [label="gini = 0.0\nsamples = 5\nvalue = [5, 0]"] ;
27 -> 33 ;
34 [label="gini = 0.0\nsamples = 1587\nvalue = [1587, 0]"] ;
24 -> 34 ;
35 [label="X[1] <= 4.5\ngini = 0.018\nsamples = 1230\nvalue = [1219, 11]"] ;
5 -> 35 ;
36 [label="X[6] <= 19.5\ngini = 0.06\nsamples = 97\nvalue = [94, 3]"] ;
35 -> 36 ;
37 [label="X[6] <= 10.5\ngini = 0.32\nsamples = 5\nvalue = [4, 1]"] ;
36 -> 37 ;
38 [label="gini = 0.0\nsamples = 4\nvalue = [4, 0]"] ;
37 -> 38 ;
39 [label="gini = 0.0\nsamples = 1\nvalue = [0, 1]"] ;
37 -> 39 ;
40 [label="X[0] <= 22.5\ngini = 0.043\nsamples = 92\nvalue = [90, 2]"] ;
36 -> 40 ;
41 [label="X[1] <= 0.5\ngini = 0.08\nsamples = 48\nvalue = [46, 2]"] ;
40 -> 41 ;
42 [label="gini = 0.0\nsamples = 17\nvalue = [17, 0]"] ;
41 -> 42 ;
43 [label="X[5] <= 0.5\ngini = 0.121\nsamples = 31\nvalue = [29, 2]"] ;
41 -> 43 ;
44 [label="gini = 0.0\nsamples = 11\nvalue = [11, 0]"] ;
43 -> 44 ;
45 [label="X[1] <= 2.5\ngini = 0.18\nsamples = 20\nvalue = [18, 2]"] ;
43 -> 45 ;
46 [label="X[1] <= 1.5\ngini = 0.26\nsamples = 13\nvalue = [11, 2]"] ;
45 -> 46 ;
47 [label="gini = 0.18\nsamples = 10\nvalue = [9, 1]"] ;
46 -> 47 ;
48 [label="gini = 0.444\nsamples = 3\nvalue = [2, 1]"] ;
46 -> 48 ;
49 [label="gini = 0.0\nsamples = 7\nvalue = [7, 0]"] ;
45 -> 49 ;
50 [label="gini = 0.0\nsamples = 44\nvalue = [44, 0]"] ;
40 -> 50 ;
51 [label="X[1] <= 14.0\ngini = 0.014\nsamples = 1133\nvalue = [1125, 8]"] ;
35 -> 51 ;
52 [label="X[4] <= 3.5\ngini = 0.009\nsamples = 693\nvalue = [690, 3]"] ;
51 -> 52 ;
53 [label="gini = 0.0\nsamples = 109\nvalue = [109, 0]"] ;
52 -> 53 ;
54 [label="X[1] <= 8.5\ngini = 0.01\nsamples = 584\nvalue = [581, 3]"] ;
52 -> 54 ;
55 [label="X[1] <= 7.5\ngini = 0.018\nsamples = 109\nvalue = [108, 1]"] ;
54 -> 55 ;
56 [label="gini = 0.0\nsamples = 67\nvalue = [67, 0]"] ;
55 -> 56 ;
57 [label="X[5] <= 0.5\ngini = 0.046\nsamples = 42\nvalue = [41, 1]"] ;
55 -> 57 ;
58 [label="gini = 0.0\nsamples = 19\nvalue = [19, 0]"] ;
57 -> 58 ;
59 [label="X[0] <= 22.5\ngini = 0.083\nsamples = 23\nvalue = [22, 1]"] ;
57 -> 59 ;
60 [label="gini = 0.0\nsamples = 8\nvalue = [8, 0]"] ;
59 -> 60 ;
61 [label="gini = 0.124\nsamples = 15\nvalue = [14, 1]"] ;
59 -> 61 ;
62 [label="X[1] <= 10.0\ngini = 0.008\nsamples = 475\nvalue = [473, 2]"] ;
54 -> 62 ;
63 [label="gini = 0.0\nsamples = 181\nvalue = [181, 0]"] ;
62 -> 63 ;
64 [label="X[6] <= 35.5\ngini = 0.014\nsamples = 294\nvalue = [292, 2]"] ;
62 -> 64 ;
65 [label="gini = 0.0\nsamples = 23\nvalue = [23, 0]"] ;
64 -> 65 ;
66 [label="X[5] <= 0.5\ngini = 0.015\nsamples = 271\nvalue = [269, 2]"] ;
64 -> 66 ;
67 [label="X[0] <= 22.5\ngini = 0.019\nsamples = 103\nvalue = [102, 1]"] ;
66 -> 67 ;
68 [label="gini = 0.0\nsamples = 49\nvalue = [49, 0]"] ;
67 -> 68 ;
69 [label="X[2] <= 1052.5\ngini = 0.036\nsamples = 54\nvalue = [53, 1]"] ;
67 -> 69 ;
70 [label="X[1] <= 11.5\ngini = 0.039\nsamples = 50\nvalue = [49, 1]"] ;
69 -> 70 ;
71 [label="gini = 0.042\nsamples = 47\nvalue = [46, 1]"] ;
70 -> 71 ;
72 [label="gini = 0.0\nsamples = 3\nvalue = [3, 0]"] ;
70 -> 72 ;
73 [label="gini = 0.0\nsamples = 4\nvalue = [4, 0]"] ;
69 -> 73 ;
74 [label="X[0] <= 22.5\ngini = 0.012\nsamples = 168\nvalue = [167, 1]"] ;
66 -> 74 ;
75 [label="X[2] <= 1453.5\ngini = 0.023\nsamples = 86\nvalue = [85, 1]"] ;
74 -> 75 ;
76 [label="X[3] <= 859.5\ngini = 0.024\nsamples = 84\nvalue = [83, 1]"] ;
75 -> 76 ;
77 [label="X[6] <= 40.0\ngini = 0.024\nsamples = 83\nvalue = [82, 1]"] ;
76 -> 77 ;
78 [label="gini = 0.024\nsamples = 82\nvalue = [81, 1]"] ;
77 -> 78 ;
79 [label="gini = 0.0\nsamples = 1\nvalue = [1, 0]"] ;
77 -> 79 ;
80 [label="gini = 0.0\nsamples = 1\nvalue = [1, 0]"] ;
76 -> 80 ;
81 [label="gini = 0.0\nsamples = 2\nvalue = [2, 0]"] ;
75 -> 81 ;
82 [label="gini = 0.0\nsamples = 82\nvalue = [82, 0]"] ;
74 -> 82 ;
83 [label="X[5] <= 0.5\ngini = 0.022\nsamples = 440\nvalue = [435, 5]"] ;
51 -> 83 ;
84 [label="X[0] <= 22.5\ngini = 0.01\nsamples = 190\nvalue = [189, 1]"] ;
83 -> 84 ;
85 [label="X[4] <= 3.0\ngini = 0.019\nsamples = 106\nvalue = [105, 1]"] ;
84 -> 85 ;
86 [label="gini = 0.0\nsamples = 19\nvalue = [19, 0]"] ;
85 -> 86 ;
87 [label="X[6] <= 32.5\ngini = 0.023\nsamples = 87\nvalue = [86, 1]"] ;
85 -> 87 ;
88 [label="gini = 0.0\nsamples = 5\nvalue = [5, 0]"] ;
87 -> 88 ;
89 [label="X[2] <= 297.0\ngini = 0.024\nsamples = 82\nvalue = [81, 1]"] ;
87 -> 89 ;
90 [label="gini = 0.025\nsamples = 80\nvalue = [79, 1]"] ;
89 -> 90 ;
91 [label="gini = 0.0\nsamples = 2\nvalue = [2, 0]"] ;
89 -> 91 ;
92 [label="gini = 0.0\nsamples = 84\nvalue = [84, 0]"] ;
84 -> 92 ;
93 [label="X[4] <= 3.5\ngini = 0.031\nsamples = 250\nvalue = [246, 4]"] ;
83 -> 93 ;
94 [label="gini = 0.0\nsamples = 34\nvalue = [34, 0]"] ;
93 -> 94 ;
95 [label="X[6] <= 32.5\ngini = 0.036\nsamples = 216\nvalue = [212, 4]"] ;
93 -> 95 ;
96 [label="gini = 0.0\nsamples = 9\nvalue = [9, 0]"] ;
95 -> 96 ;
97 [label="X[2] <= 527.5\ngini = 0.038\nsamples = 207\nvalue = [203, 4]"] ;
95 -> 97 ;
98 [label="X[0] <= 22.5\ngini = 0.039\nsamples = 202\nvalue = [198, 4]"] ;
97 -> 98 ;
99 [label="gini = 0.037\nsamples = 106\nvalue = [104, 2]"] ;
98 -> 99 ;
100 [label="gini = 0.041\nsamples = 96\nvalue = [94, 2]"] ;
98 -> 100 ;
101 [label="gini = 0.0\nsamples = 5\nvalue = [5, 0]"] ;
97 -> 101 ;
102 [label="X[3] <= 1894.5\ngini = 0.219\nsamples = 16\nvalue = [14, 2]"] ;
4 -> 102 ;
103 [label="gini = 0.0\nsamples = 1\nvalue = [0, 1]"] ;
102 -> 103 ;
104 [label="X[1] <= 10.0\ngini = 0.124\nsamples = 15\nvalue = [14, 1]"] ;
102 -> 104 ;
105 [label="X[1] <= 8.5\ngini = 0.375\nsamples = 4\nvalue = [3, 1]"] ;
104 -> 105 ;
106 [label="gini = 0.0\nsamples = 3\nvalue = [3, 0]"] ;
105 -> 106 ;
107 [label="gini = 0.0\nsamples = 1\nvalue = [0, 1]"] ;
105 -> 107 ;
108 [label="gini = 0.0\nsamples = 11\nvalue = [11, 0]"] ;
104 -> 108 ;
109 [label="X[3] <= 1881.5\ngini = 0.085\nsamples = 1191\nvalue = [1138, 53]"] ;
3 -> 109 ;
110 [label="X[4] <= 3.5\ngini = 0.08\nsamples = 1180\nvalue = [1131, 49]"] ;
109 -> 110 ;
111 [label="X[6] <= 21.0\ngini = 0.022\nsamples = 181\nvalue = [179, 2]"] ;
110 -> 111 ;
112 [label="X[1] <= 8.0\ngini = 0.133\nsamples = 14\nvalue = [13, 1]"] ;
111 -> 112 ;
113 [label="X[4] <= 1.5\ngini = 0.5\nsamples = 2\nvalue = [1, 1]"] ;
112 -> 113 ;
114 [label="gini = 0.0\nsamples = 1\nvalue = [0, 1]"] ;
113 -> 114 ;
115 [label="gini = 0.0\nsamples = 1\nvalue = [1, 0]"] ;
113 -> 115 ;
116 [label="gini = 0.0\nsamples = 12\nvalue = [12, 0]"] ;
112 -> 116 ;
117 [label="X[1] <= 13.5\ngini = 0.012\nsamples = 167\nvalue = [166, 1]"] ;
111 -> 117 ;
118 [label="gini = 0.0\nsamples = 114\nvalue = [114, 0]"] ;
117 -> 118 ;
119 [label="X[5] <= 0.5\ngini = 0.037\nsamples = 53\nvalue = [52, 1]"] ;
117 -> 119 ;
120 [label="X[0] <= 24.5\ngini = 0.071\nsamples = 27\nvalue = [26, 1]"] ;
119 -> 120 ;
121 [label="gini = 0.0\nsamples = 12\nvalue = [12, 0]"] ;
120 -> 121 ;
122 [label="X[4] <= 1.5\ngini = 0.124\nsamples = 15\nvalue = [14, 1]"] ;
120 -> 122 ;
123 [label="gini = 0.0\nsamples = 3\nvalue = [3, 0]"] ;
122 -> 123 ;
124 [label="X[4] <= 2.5\ngini = 0.153\nsamples = 12\nvalue = [11, 1]"] ;
122 -> 124 ;
125 [label="X[6] <= 31.0\ngini = 0.18\nsamples = 10\nvalue = [9, 1]"] ;
124 -> 125 ;
126 [label="gini = 0.0\nsamples = 2\nvalue = [2, 0]"] ;
125 -> 126 ;
127 [label="X[2] <= 1087.0\ngini = 0.219\nsamples = 8\nvalue = [7, 1]"] ;
125 -> 127 ;
128 [label="gini = 0.245\nsamples = 7\nvalue = [6, 1]"] ;
127 -> 128 ;
129 [label="gini = 0.0\nsamples = 1\nvalue = [1, 0]"] ;
127 -> 129 ;
130 [label="gini = 0.0\nsamples = 2\nvalue = [2, 0]"] ;
124 -> 130 ;
131 [label="gini = 0.0\nsamples = 26\nvalue = [26, 0]"] ;
119 -> 131 ;
132 [label="X[1] <= 6.5\ngini = 0.09\nsamples = 999\nvalue = [952, 47]"] ;
110 -> 132 ;
133 [label="X[0] <= 24.5\ngini = 0.019\nsamples = 104\nvalue = [103, 1]"] ;
132 -> 133 ;
134 [label="X[1] <= 1.5\ngini = 0.044\nsamples = 44\nvalue = [43, 1]"] ;
133 -> 134 ;
135 [label="X[5] <= 0.5\ngini = 0.1\nsamples = 19\nvalue = [18, 1]"] ;
134 -> 135 ;
136 [label="gini = 0.0\nsamples = 7\nvalue = [7, 0]"] ;
135 -> 136 ;
137 [label="X[1] <= 0.5\ngini = 0.153\nsamples = 12\nvalue = [11, 1]"] ;
135 -> 137 ;
138 [label="gini = 0.0\nsamples = 2\nvalue = [2, 0]"] ;
137 -> 138 ;
139 [label="X[2] <= 1231.5\ngini = 0.18\nsamples = 10\nvalue = [9, 1]"] ;
137 -> 139 ;
140 [label="gini = 0.198\nsamples = 9\nvalue = [8, 1]"] ;
139 -> 140 ;
141 [label="gini = 0.0\nsamples = 1\nvalue = [1, 0]"] ;
139 -> 141 ;
142 [label="gini = 0.0\nsamples = 25\nvalue = [25, 0]"] ;
134 -> 142 ;
143 [label="gini = 0.0\nsamples = 60\nvalue = [60, 0]"] ;
133 -> 143 ;
144 [label="X[0] <= 24.5\ngini = 0.098\nsamples = 895\nvalue = [849, 46]"] ;
132 -> 144 ;
145 [label="X[2] <= 4243.5\ngini = 0.077\nsamples = 446\nvalue = [428, 18]"] ;
144 -> 145 ;
146 [label="X[6] <= 35.5\ngini = 0.074\nsamples = 443\nvalue = [426, 17]"] ;
145 -> 146 ;
147 [label="X[6] <= 29.0\ngini = 0.185\nsamples = 29\nvalue = [26, 3]"] ;
146 -> 147 ;
148 [label="X[5] <= 0.5\ngini = 0.133\nsamples = 28\nvalue = [26, 2]"] ;
147 -> 148 ;
149 [label="gini = 0.0\nsamples = 12\nvalue = [12, 0]"] ;
148 -> 149 ;
150 [label="X[6] <= 10.5\ngini = 0.219\nsamples = 16\nvalue = [14, 2]"] ;
148 -> 150 ;
151 [label="X[6] <= 8.5\ngini = 0.444\nsamples = 3\nvalue = [2, 1]"] ;
150 -> 151 ;
152 [label="gini = 0.0\nsamples = 2\nvalue = [2, 0]"] ;
151 -> 152 ;
153 [label="gini = 0.0\nsamples = 1\nvalue = [0, 1]"] ;
151 -> 153 ;
154 [label="X[6] <= 24.5\ngini = 0.142\nsamples = 13\nvalue = [12, 1]"] ;
150 -> 154 ;
155 [label="gini = 0.0\nsamples = 6\nvalue = [6, 0]"] ;
154 -> 155 ;
156 [label="X[1] <= 12.0\ngini = 0.245\nsamples = 7\nvalue = [6, 1]"] ;
154 -> 156 ;
157 [label="gini = 0.32\nsamples = 5\nvalue = [4, 1]"] ;
156 -> 157 ;
158 [label="gini = 0.0\nsamples = 2\nvalue = [2, 0]"] ;
156 -> 158 ;
159 [label="gini = 0.0\nsamples = 1\nvalue = [0, 1]"] ;
147 -> 159 ;
160 [label="X[1] <= 11.5\ngini = 0.065\nsamples = 414\nvalue = [400, 14]"] ;
146 -> 160 ;
161 [label="X[1] <= 7.5\ngini = 0.052\nsamples = 301\nvalue = [293, 8]"] ;
160 -> 161 ;
162 [label="gini = 0.0\nsamples = 20\nvalue = [20, 0]"] ;
161 -> 162 ;
163 [label="X[1] <= 10.0\ngini = 0.055\nsamples = 281\nvalue = [273, 8]"] ;
161 -> 163 ;
164 [label="X[5] <= 0.5\ngini = 0.069\nsamples = 140\nvalue = [135, 5]"] ;
163 -> 164 ;
165 [label="X[1] <= 8.5\ngini = 0.038\nsamples = 52\nvalue = [51, 1]"] ;
164 -> 165 ;
166 [label="gini = 0.0\nsamples = 4\nvalue = [4, 0]"] ;
165 -> 166 ;
167 [label="X[2] <= 1837.0\ngini = 0.041\nsamples = 48\nvalue = [47, 1]"] ;
165 -> 167 ;
168 [label="gini = 0.042\nsamples = 47\nvalue = [46, 1]"] ;
167 -> 168 ;
169 [label="gini = 0.0\nsamples = 1\nvalue = [1, 0]"] ;
167 -> 169 ;
170 [label="X[2] <= 1087.0\ngini = 0.087\nsamples = 88\nvalue = [84, 4]"] ;
164 -> 170 ;
171 [label="X[1] <= 8.5\ngini = 0.09\nsamples = 85\nvalue = [81, 4]"] ;
170 -> 171 ;
172 [label="gini = 0.111\nsamples = 17\nvalue = [16, 1]"] ;
171 -> 172 ;
173 [label="X[3] <= 870.5\ngini = 0.084\nsamples = 68\nvalue = [65, 3]"] ;
171 -> 173 ;
174 [label="gini = 0.086\nsamples = 67\nvalue = [64, 3]"] ;
173 -> 174 ;
175 [label="gini = 0.0\nsamples = 1\nvalue = [1, 0]"] ;
173 -> 175 ;
176 [label="gini = 0.0\nsamples = 3\nvalue = [3, 0]"] ;
170 -> 176 ;
177 [label="X[5] <= 0.5\ngini = 0.042\nsamples = 141\nvalue = [138, 3]"] ;
163 -> 177 ;
178 [label="X[2] <= 297.0\ngini = 0.08\nsamples = 48\nvalue = [46, 2]"] ;
177 -> 178 ;
179 [label="X[3] <= 881.0\ngini = 0.085\nsamples = 45\nvalue = [43, 2]"] ;
178 -> 179 ;
180 [label="gini = 0.089\nsamples = 43\nvalue = [41, 2]"] ;
179 -> 180 ;
181 [label="gini = 0.0\nsamples = 2\nvalue = [2, 0]"] ;
179 -> 181 ;
182 [label="gini = 0.0\nsamples = 3\nvalue = [3, 0]"] ;
178 -> 182 ;
183 [label="X[3] <= 704.0\ngini = 0.021\nsamples = 93\nvalue = [92, 1]"] ;
177 -> 183 ;
184 [label="X[2] <= 1442.5\ngini = 0.022\nsamples = 90\nvalue = [89, 1]"] ;
183 -> 184 ;
185 [label="gini = 0.022\nsamples = 88\nvalue = [87, 1]"] ;
184 -> 185 ;
186 [label="gini = 0.0\nsamples = 2\nvalue = [2, 0]"] ;
184 -> 186 ;
187 [label="gini = 0.0\nsamples = 3\nvalue = [3, 0]"] ;
183 -> 187 ;
188 [label="X[1] <= 12.5\ngini = 0.101\nsamples = 113\nvalue = [107, 6]"] ;
160 -> 188 ;
189 [label="X[5] <= 0.5\ngini = 0.32\nsamples = 5\nvalue = [4, 1]"] ;
188 -> 189 ;
190 [label="gini = 0.5\nsamples = 2\nvalue = [1, 1]"] ;
189 -> 190 ;
191 [label="gini = 0.0\nsamples = 3\nvalue = [3, 0]"] ;
189 -> 191 ;
192 [label="X[5] <= 0.5\ngini = 0.088\nsamples = 108\nvalue = [103, 5]"] ;
188 -> 192 ;
193 [label="X[1] <= 14.0\ngini = 0.054\nsamples = 36\nvalue = [35, 1]"] ;
192 -> 193 ;
194 [label="gini = 0.0\nsamples = 1\nvalue = [1, 0]"] ;
193 -> 194 ;
195 [label="gini = 0.056\nsamples = 35\nvalue = [34, 1]"] ;
193 -> 195 ;
196 [label="X[3] <= 881.0\ngini = 0.105\nsamples = 72\nvalue = [68, 4]"] ;
192 -> 196 ;
197 [label="X[2] <= 1203.5\ngini = 0.106\nsamples = 71\nvalue = [67, 4]"] ;
196 -> 197 ;
198 [label="gini = 0.108\nsamples = 70\nvalue = [66, 4]"] ;
197 -> 198 ;
199 [label="gini = 0.0\nsamples = 1\nvalue = [1, 0]"] ;
197 -> 199 ;
200 [label="gini = 0.0\nsamples = 1\nvalue = [1, 0]"] ;
196 -> 200 ;
201 [label="X[2] <= 4699.5\ngini = 0.444\nsamples = 3\nvalue = [2, 1]"] ;
145 -> 201 ;
202 [label="gini = 0.0\nsamples = 1\nvalue = [0, 1]"] ;
201 -> 202 ;
203 [label="gini = 0.0\nsamples = 2\nvalue = [2, 0]"] ;
201 -> 203 ;
204 [label="X[1] <= 10.0\ngini = 0.117\nsamples = 449\nvalue = [421, 28]"] ;
144 -> 204 ;
205 [label="X[6] <= 34.0\ngini = 0.171\nsamples = 169\nvalue = [153, 16]"] ;
204 -> 205 ;
206 [label="gini = 0.0\nsamples = 8\nvalue = [8, 0]"] ;
205 -> 206 ;
207 [label="X[2] <= 1298.5\ngini = 0.179\nsamples = 161\nvalue = [145, 16]"] ;
205 -> 207 ;
208 [label="X[3] <= 795.0\ngini = 0.186\nsamples = 154\nvalue = [138, 16]"] ;
207 -> 208 ;
209 [label="X[5] <= 0.5\ngini = 0.193\nsamples = 148\nvalue = [132, 16]"] ;
208 -> 209 ;
210 [label="X[1] <= 8.5\ngini = 0.155\nsamples = 59\nvalue = [54, 5]"] ;
209 -> 210 ;
211 [label="X[1] <= 7.5\ngini = 0.231\nsamples = 15\nvalue = [13, 2]"] ;
210 -> 211 ;
212 [label="gini = 0.219\nsamples = 8\nvalue = [7, 1]"] ;
211 -> 212 ;
213 [label="gini = 0.245\nsamples = 7\nvalue = [6, 1]"] ;
211 -> 213 ;
214 [label="gini = 0.127\nsamples = 44\nvalue = [41, 3]"] ;
210 -> 214 ;
215 [label="X[1] <= 8.5\ngini = 0.217\nsamples = 89\nvalue = [78, 11]"] ;
209 -> 215 ;
216 [label="X[1] <= 7.5\ngini = 0.095\nsamples = 20\nvalue = [19, 1]"] ;
215 -> 216 ;
217 [label="gini = 0.165\nsamples = 11\nvalue = [10, 1]"] ;
216 -> 217 ;
218 [label="gini = 0.0\nsamples = 9\nvalue = [9, 0]"] ;
216 -> 218 ;
219 [label="gini = 0.248\nsamples = 69\nvalue = [59, 10]"] ;
215 -> 219 ;
220 [label="gini = 0.0\nsamples = 6\nvalue = [6, 0]"] ;
208 -> 220 ;
221 [label="gini = 0.0\nsamples = 7\nvalue = [7, 0]"] ;
207 -> 221 ;
222 [label="X[2] <= 2994.0\ngini = 0.082\nsamples = 280\nvalue = [268, 12]"] ;
204 -> 222 ;
223 [label="X[6] <= 35.0\ngini = 0.077\nsamples = 275\nvalue = [264, 11]"] ;
222 -> 223 ;
224 [label="gini = 0.0\nsamples = 24\nvalue = [24, 0]"] ;
223 -> 224 ;
225 [label="X[1] <= 13.0\ngini = 0.084\nsamples = 251\nvalue = [240, 11]"] ;
223 -> 225 ;
226 [label="X[1] <= 11.5\ngini = 0.097\nsamples = 156\nvalue = [148, 8]"] ;
225 -> 226 ;
227 [label="X[2] <= 57.0\ngini = 0.084\nsamples = 137\nvalue = [131, 6]"] ;
226 -> 227 ;
228 [label="X[3] <= 801.0\ngini = 0.086\nsamples = 133\nvalue = [127, 6]"] ;
227 -> 228 ;
229 [label="X[5] <= 0.5\ngini = 0.087\nsamples = 131\nvalue = [125, 6]"] ;
228 -> 229 ;
230 [label="gini = 0.095\nsamples = 40\nvalue = [38, 2]"] ;
229 -> 230 ;
231 [label="gini = 0.084\nsamples = 91\nvalue = [87, 4]"] ;
229 -> 231 ;
232 [label="gini = 0.0\nsamples = 2\nvalue = [2, 0]"] ;
228 -> 232 ;
233 [label="gini = 0.0\nsamples = 4\nvalue = [4, 0]"] ;
227 -> 233 ;
234 [label="X[2] <= 1298.5\ngini = 0.188\nsamples = 19\nvalue = [17, 2]"] ;
226 -> 234 ;
235 [label="X[5] <= 0.5\ngini = 0.198\nsamples = 18\nvalue = [16, 2]"] ;
234 -> 235 ;
236 [label="gini = 0.198\nsamples = 9\nvalue = [8, 1]"] ;
235 -> 236 ;
237 [label="gini = 0.198\nsamples = 9\nvalue = [8, 1]"] ;
235 -> 237 ;
238 [label="gini = 0.0\nsamples = 1\nvalue = [1, 0]"] ;
234 -> 238 ;
239 [label="X[5] <= 0.5\ngini = 0.061\nsamples = 95\nvalue = [92, 3]"] ;
225 -> 239 ;
240 [label="gini = 0.0\nsamples = 42\nvalue = [42, 0]"] ;
239 -> 240 ;
241 [label="X[2] <= 1087.0\ngini = 0.107\nsamples = 53\nvalue = [50, 3]"] ;
239 -> 241 ;
242 [label="X[3] <= 795.0\ngini = 0.113\nsamples = 50\nvalue = [47, 3]"] ;
241 -> 242 ;
243 [label="gini = 0.115\nsamples = 49\nvalue = [46, 3]"] ;
242 -> 243 ;
244 [label="gini = 0.0\nsamples = 1\nvalue = [1, 0]"] ;
242 -> 244 ;
245 [label="gini = 0.0\nsamples = 3\nvalue = [3, 0]"] ;
241 -> 245 ;
246 [label="X[2] <= 3120.0\ngini = 0.32\nsamples = 5\nvalue = [4, 1]"] ;
222 -> 246 ;
247 [label="gini = 0.0\nsamples = 1\nvalue = [0, 1]"] ;
246 -> 247 ;
248 [label="gini = 0.0\nsamples = 4\nvalue = [4, 0]"] ;
246 -> 248 ;
249 [label="X[3] <= 1978.5\ngini = 0.463\nsamples = 11\nvalue = [7, 4]"] ;
109 -> 249 ;
250 [label="X[0] <= 24.5\ngini = 0.32\nsamples = 5\nvalue = [1, 4]"] ;
249 -> 250 ;
251 [label="X[3] <= 1938.0\ngini = 0.5\nsamples = 2\nvalue = [1, 1]"] ;
250 -> 251 ;
252 [label="gini = 0.0\nsamples = 1\nvalue = [0, 1]"] ;
251 -> 252 ;
253 [label="gini = 0.0\nsamples = 1\nvalue = [1, 0]"] ;
251 -> 253 ;
254 [label="gini = 0.0\nsamples = 3\nvalue = [0, 3]"] ;
250 -> 254 ;
255 [label="gini = 0.0\nsamples = 6\nvalue = [6, 0]"] ;
249 -> 255 ;
256 [label="X[3] <= 1446.5\ngini = 0.189\nsamples = 2426\nvalue = [2170, 256]"] ;
2 -> 256 ;
257 [label="X[1] <= 5.5\ngini = 0.176\nsamples = 2352\nvalue = [2122, 230]"] ;
256 -> 257 ;
258 [label="X[0] <= 28.5\ngini = 0.028\nsamples = 215\nvalue = [212, 3]"] ;
257 -> 258 ;
259 [label="X[0] <= 27.5\ngini = 0.012\nsamples = 172\nvalue = [171, 1]"] ;
258 -> 259 ;
260 [label="gini = 0.0\nsamples = 96\nvalue = [96, 0]"] ;
259 -> 260 ;
261 [label="X[5] <= 0.5\ngini = 0.026\nsamples = 76\nvalue = [75, 1]"] ;
259 -> 261 ;
262 [label="gini = 0.0\nsamples = 31\nvalue = [31, 0]"] ;
261 -> 262 ;
263 [label="X[1] <= 1.5\ngini = 0.043\nsamples = 45\nvalue = [44, 1]"] ;
261 -> 263 ;
264 [label="X[1] <= 0.5\ngini = 0.069\nsamples = 28\nvalue = [27, 1]"] ;
263 -> 264 ;
265 [label="gini = 0.0\nsamples = 16\nvalue = [16, 0]"] ;
264 -> 265 ;
266 [label="X[6] <= 32.5\ngini = 0.153\nsamples = 12\nvalue = [11, 1]"] ;
264 -> 266 ;
267 [label="gini = 0.0\nsamples = 2\nvalue = [2, 0]"] ;
266 -> 267 ;
268 [label="X[4] <= 3.0\ngini = 0.18\nsamples = 10\nvalue = [9, 1]"] ;
266 -> 268 ;
269 [label="gini = 0.0\nsamples = 1\nvalue = [1, 0]"] ;
268 -> 269 ;
270 [label="gini = 0.198\nsamples = 9\nvalue = [8, 1]"] ;
268 -> 270 ;
271 [label="gini = 0.0\nsamples = 17\nvalue = [17, 0]"] ;
263 -> 271 ;
272 [label="X[5] <= 0.5\ngini = 0.089\nsamples = 43\nvalue = [41, 2]"] ;
258 -> 272 ;
273 [label="gini = 0.0\nsamples = 20\nvalue = [20, 0]"] ;
272 -> 273 ;
274 [label="X[6] <= 34.5\ngini = 0.159\nsamples = 23\nvalue = [21, 2]"] ;
272 -> 274 ;
275 [label="gini = 0.0\nsamples = 11\nvalue = [11, 0]"] ;
274 -> 275 ;
276 [label="X[1] <= 1.5\ngini = 0.278\nsamples = 12\nvalue = [10, 2]"] ;
274 -> 276 ;
277 [label="X[1] <= 0.5\ngini = 0.18\nsamples = 10\nvalue = [9, 1]"] ;
276 -> 277 ;
278 [label="X[2] <= 2506.5\ngini = 0.278\nsamples = 6\nvalue = [5, 1]"] ;
277 -> 278 ;
279 [label="gini = 0.32\nsamples = 5\nvalue = [4, 1]"] ;
278 -> 279 ;
280 [label="gini = 0.0\nsamples = 1\nvalue = [1, 0]"] ;
278 -> 280 ;
281 [label="gini = 0.0\nsamples = 4\nvalue = [4, 0]"] ;
277 -> 281 ;
282 [label="X[4] <= 3.5\ngini = 0.5\nsamples = 2\nvalue = [1, 1]"] ;
276 -> 282 ;
283 [label="gini = 0.0\nsamples = 1\nvalue = [1, 0]"] ;
282 -> 283 ;
284 [label="gini = 0.0\nsamples = 1\nvalue = [0, 1]"] ;
282 -> 284 ;
285 [label="X[1] <= 10.5\ngini = 0.19\nsamples = 2137\nvalue = [1910, 227]"] ;
257 -> 285 ;
286 [label="X[0] <= 27.5\ngini = 0.268\nsamples = 734\nvalue = [617, 117]"] ;
285 -> 286 ;
287 [label="X[1] <= 8.5\ngini = 0.169\nsamples = 386\nvalue = [350, 36]"] ;
286 -> 287 ;
288 [label="X[4] <= 0.5\ngini = 0.099\nsamples = 115\nvalue = [109, 6]"] ;
287 -> 288 ;
289 [label="X[1] <= 7.5\ngini = 0.444\nsamples = 3\nvalue = [2, 1]"] ;
288 -> 289 ;
290 [label="gini = 0.0\nsamples = 2\nvalue = [2, 0]"] ;
289 -> 290 ;
291 [label="gini = 0.0\nsamples = 1\nvalue = [0, 1]"] ;
289 -> 291 ;
292 [label="X[1] <= 6.5\ngini = 0.085\nsamples = 112\nvalue = [107, 5]"] ;
288 -> 292 ;
293 [label="gini = 0.0\nsamples = 14\nvalue = [14, 0]"] ;
292 -> 293 ;
294 [label="X[4] <= 3.5\ngini = 0.097\nsamples = 98\nvalue = [93, 5]"] ;
292 -> 294 ;
295 [label="gini = 0.0\nsamples = 12\nvalue = [12, 0]"] ;
294 -> 295 ;
296 [label="X[0] <= 26.5\ngini = 0.11\nsamples = 86\nvalue = [81, 5]"] ;
294 -> 296 ;
297 [label="X[5] <= 0.5\ngini = 0.145\nsamples = 38\nvalue = [35, 3]"] ;
296 -> 297 ;
298 [label="X[1] <= 7.5\ngini = 0.091\nsamples = 21\nvalue = [20, 1]"] ;
297 -> 298 ;
299 [label="gini = 0.0\nsamples = 6\nvalue = [6, 0]"] ;
298 -> 299 ;
300 [label="X[2] <= 297.0\ngini = 0.124\nsamples = 15\nvalue = [14, 1]"] ;
298 -> 300 ;
301 [label="gini = 0.133\nsamples = 14\nvalue = [13, 1]"] ;
300 -> 301 ;
302 [label="gini = 0.0\nsamples = 1\nvalue = [1, 0]"] ;
300 -> 302 ;
303 [label="X[6] <= 31.5\ngini = 0.208\nsamples = 17\nvalue = [15, 2]"] ;
297 -> 303 ;
304 [label="gini = 0.0\nsamples = 1\nvalue = [1, 0]"] ;
303 -> 304 ;
305 [label="X[1] <= 7.5\ngini = 0.219\nsamples = 16\nvalue = [14, 2]"] ;
303 -> 305 ;
306 [label="gini = 0.245\nsamples = 7\nvalue = [6, 1]"] ;
305 -> 306 ;
307 [label="gini = 0.198\nsamples = 9\nvalue = [8, 1]"] ;
305 -> 307 ;
308 [label="X[5] <= 0.5\ngini = 0.08\nsamples = 48\nvalue = [46, 2]"] ;
296 -> 308 ;
309 [label="X[1] <= 7.5\ngini = 0.124\nsamples = 15\nvalue = [14, 1]"] ;
308 -> 309 ;
310 [label="gini = 0.0\nsamples = 7\nvalue = [7, 0]"] ;
309 -> 310 ;
311 [label="gini = 0.219\nsamples = 8\nvalue = [7, 1]"] ;
309 -> 311 ;
312 [label="X[1] <= 7.5\ngini = 0.059\nsamples = 33\nvalue = [32, 1]"] ;
308 -> 312 ;
313 [label="X[2] <= 1662.5\ngini = 0.18\nsamples = 10\nvalue = [9, 1]"] ;
312 -> 313 ;
314 [label="gini = 0.198\nsamples = 9\nvalue = [8, 1]"] ;
313 -> 314 ;
315 [label="gini = 0.0\nsamples = 1\nvalue = [1, 0]"] ;
313 -> 315 ;
316 [label="gini = 0.0\nsamples = 23\nvalue = [23, 0]"] ;
312 -> 316 ;
317 [label="X[4] <= 1.5\ngini = 0.197\nsamples = 271\nvalue = [241, 30]"] ;
287 -> 317 ;
318 [label="X[0] <= 26.5\ngini = 0.083\nsamples = 23\nvalue = [22, 1]"] ;
317 -> 318 ;
319 [label="gini = 0.0\nsamples = 12\nvalue = [12, 0]"] ;
318 -> 319 ;
320 [label="X[5] <= 0.5\ngini = 0.165\nsamples = 11\nvalue = [10, 1]"] ;
318 -> 320 ;
321 [label="gini = 0.0\nsamples = 5\nvalue = [5, 0]"] ;
320 -> 321 ;
322 [label="X[6] <= 34.5\ngini = 0.278\nsamples = 6\nvalue = [5, 1]"] ;
320 -> 322 ;
323 [label="X[6] <= 15.0\ngini = 0.375\nsamples = 4\nvalue = [3, 1]"] ;
322 -> 323 ;
324 [label="gini = 0.0\nsamples = 1\nvalue = [1, 0]"] ;
323 -> 324 ;
325 [label="gini = 0.444\nsamples = 3\nvalue = [2, 1]"] ;
323 -> 325 ;
326 [label="gini = 0.0\nsamples = 2\nvalue = [2, 0]"] ;
322 -> 326 ;
327 [label="X[4] <= 2.5\ngini = 0.207\nsamples = 248\nvalue = [219, 29]"] ;
317 -> 327 ;
328 [label="X[6] <= 4.5\ngini = 0.346\nsamples = 18\nvalue = [14, 4]"] ;
327 -> 328 ;
329 [label="X[0] <= 26.5\ngini = 0.5\nsamples = 2\nvalue = [1, 1]"] ;
328 -> 329 ;
330 [label="gini = 0.0\nsamples = 1\nvalue = [1, 0]"] ;
329 -> 330 ;
331 [label="gini = 0.0\nsamples = 1\nvalue = [0, 1]"] ;
329 -> 331 ;
332 [label="X[6] <= 24.5\ngini = 0.305\nsamples = 16\nvalue = [13, 3]"] ;
328 -> 332 ;
333 [label="gini = 0.0\nsamples = 2\nvalue = [2, 0]"] ;
332 -> 333 ;
334 [label="X[5] <= 0.5\ngini = 0.337\nsamples = 14\nvalue = [11, 3]"] ;
332 -> 334 ;
335 [label="X[0] <= 26.5\ngini = 0.298\nsamples = 11\nvalue = [9, 2]"] ;
334 -> 335 ;
336 [label="gini = 0.245\nsamples = 7\nvalue = [6, 1]"] ;
335 -> 336 ;
337 [label="gini = 0.375\nsamples = 4\nvalue = [3, 1]"] ;
335 -> 337 ;
338 [label="X[0] <= 26.5\ngini = 0.444\nsamples = 3\nvalue = [2, 1]"] ;
334 -> 338 ;
339 [label="gini = 0.0\nsamples = 1\nvalue = [0, 1]"] ;
338 -> 339 ;
340 [label="gini = 0.0\nsamples = 2\nvalue = [2, 0]"] ;
338 -> 340 ;
341 [label="X[6] <= 2.5\ngini = 0.194\nsamples = 230\nvalue = [205, 25]"] ;
327 -> 341 ;
342 [label="gini = 0.0\nsamples = 7\nvalue = [7, 0]"] ;
341 -> 342 ;
343 [label="X[6] <= 6.5\ngini = 0.199\nsamples = 223\nvalue = [198, 25]"] ;
341 -> 343 ;
344 [label="gini = 0.0\nsamples = 1\nvalue = [0, 1]"] ;
343 -> 344 ;
345 [label="X[0] <= 26.5\ngini = 0.193\nsamples = 222\nvalue = [198, 24]"] ;
343 -> 345 ;
346 [label="X[2] <= 527.5\ngini = 0.222\nsamples = 110\nvalue = [96, 14]"] ;
345 -> 346 ;
347 [label="X[6] <= 23.5\ngini = 0.227\nsamples = 107\nvalue = [93, 14]"] ;
346 -> 347 ;
348 [label="gini = 0.0\nsamples = 1\nvalue = [1, 0]"] ;
347 -> 348 ;
349 [label="X[5] <= 0.5\ngini = 0.229\nsamples = 106\nvalue = [92, 14]"] ;
347 -> 349 ;
350 [label="gini = 0.222\nsamples = 55\nvalue = [48, 7]"] ;
349 -> 350 ;
351 [label="gini = 0.237\nsamples = 51\nvalue = [44, 7]"] ;
349 -> 351 ;
352 [label="gini = 0.0\nsamples = 3\nvalue = [3, 0]"] ;
346 -> 352 ;
353 [label="X[1] <= 9.5\ngini = 0.163\nsamples = 112\nvalue = [102, 10]"] ;
345 -> 353 ;
354 [label="X[4] <= 3.5\ngini = 0.164\nsamples = 111\nvalue = [101, 10]"] ;
353 -> 354 ;
355 [label="gini = 0.0\nsamples = 1\nvalue = [1, 0]"] ;
354 -> 355 ;
356 [label="X[2] <= 2050.5\ngini = 0.165\nsamples = 110\nvalue = [100, 10]"] ;
354 -> 356 ;
357 [label="X[5] <= 0.5\ngini = 0.167\nsamples = 109\nvalue = [99, 10]"] ;
356 -> 357 ;
358 [label="gini = 0.156\nsamples = 47\nvalue = [43, 4]"] ;
357 -> 358 ;
359 [label="gini = 0.175\nsamples = 62\nvalue = [56, 6]"] ;
357 -> 359 ;
360 [label="gini = 0.0\nsamples = 1\nvalue = [1, 0]"] ;
356 -> 360 ;
361 [label="gini = 0.0\nsamples = 1\nvalue = [1, 0]"] ;
353 -> 361 ;
362 [label="X[5] <= 0.5\ngini = 0.357\nsamples = 348\nvalue = [267, 81]"] ;
286 -> 362 ;
363 [label="X[1] <= 9.5\ngini = 0.242\nsamples = 128\nvalue = [110, 18]"] ;
362 -> 363 ;
364 [label="X[4] <= 3.5\ngini = 0.223\nsamples = 125\nvalue = [109, 16]"] ;
363 -> 364 ;
365 [label="gini = 0.0\nsamples = 29\nvalue = [29, 0]"] ;
364 -> 365 ;
366 [label="X[1] <= 8.5\ngini = 0.278\nsamples = 96\nvalue = [80, 16]"] ;
364 -> 366 ;
367 [label="X[6] <= 33.0\ngini = 0.13\nsamples = 43\nvalue = [40, 3]"] ;
366 -> 367 ;
368 [label="X[6] <= 26.5\ngini = 0.32\nsamples = 5\nvalue = [4, 1]"] ;
367 -> 368 ;
369 [label="gini = 0.0\nsamples = 4\nvalue = [4, 0]"] ;
368 -> 369 ;
370 [label="gini = 0.0\nsamples = 1\nvalue = [0, 1]"] ;
368 -> 370 ;
371 [label="X[1] <= 7.5\ngini = 0.1\nsamples = 38\nvalue = [36, 2]"] ;
367 -> 371 ;
372 [label="X[1] <= 6.5\ngini = 0.188\nsamples = 19\nvalue = [17, 2]"] ;
371 -> 372 ;
373 [label="gini = 0.0\nsamples = 1\nvalue = [1, 0]"] ;
372 -> 373 ;
374 [label="X[2] <= 1709.0\ngini = 0.198\nsamples = 18\nvalue = [16, 2]"] ;
372 -> 374 ;
375 [label="X[0] <= 28.5\ngini = 0.208\nsamples = 17\nvalue = [15, 2]"] ;
374 -> 375 ;
376 [label="gini = 0.198\nsamples = 9\nvalue = [8, 1]"] ;
375 -> 376 ;
377 [label="gini = 0.219\nsamples = 8\nvalue = [7, 1]"] ;
375 -> 377 ;
378 [label="gini = 0.0\nsamples = 1\nvalue = [1, 0]"] ;
374 -> 378 ;
379 [label="gini = 0.0\nsamples = 19\nvalue = [19, 0]"] ;
371 -> 379 ;
380 [label="X[6] <= 8.5\ngini = 0.37\nsamples = 53\nvalue = [40, 13]"] ;
366 -> 380 ;
381 [label="gini = 0.0\nsamples = 4\nvalue = [4, 0]"] ;
380 -> 381 ;
382 [label="X[6] <= 24.0\ngini = 0.39\nsamples = 49\nvalue = [36, 13]"] ;
380 -> 382 ;
383 [label="gini = 0.0\nsamples = 1\nvalue = [0, 1]"] ;
382 -> 383 ;
384 [label="X[2] <= 1087.0\ngini = 0.375\nsamples = 48\nvalue = [36, 12]"] ;
382 -> 384 ;
385 [label="X[0] <= 28.5\ngini = 0.391\nsamples = 45\nvalue = [33, 12]"] ;
384 -> 385 ;
386 [label="gini = 0.355\nsamples = 26\nvalue = [20, 6]"] ;
385 -> 386 ;
387 [label="gini = 0.432\nsamples = 19\nvalue = [13, 6]"] ;
385 -> 387 ;
388 [label="gini = 0.0\nsamples = 3\nvalue = [3, 0]"] ;
384 -> 388 ;
389 [label="X[0] <= 28.5\ngini = 0.444\nsamples = 3\nvalue = [1, 2]"] ;
363 -> 389 ;
390 [label="X[6] <= 25.0\ngini = 0.5\nsamples = 2\nvalue = [1, 1]"] ;
389 -> 390 ;
391 [label="gini = 0.0\nsamples = 1\nvalue = [0, 1]"] ;
390 -> 391 ;
392 [label="gini = 0.0\nsamples = 1\nvalue = [1, 0]"] ;
390 -> 392 ;
393 [label="gini = 0.0\nsamples = 1\nvalue = [0, 1]"] ;
389 -> 393 ;
394 [label="X[6] <= 1.0\ngini = 0.409\nsamples = 220\nvalue = [157, 63]"] ;
362 -> 394 ;
395 [label="gini = 0.0\nsamples = 3\nvalue = [0, 3]"] ;
394 -> 395 ;
396 [label="X[1] <= 8.5\ngini = 0.4\nsamples = 217\nvalue = [157, 60]"] ;
394 -> 396 ;
397 [label="X[4] <= 2.5\ngini = 0.32\nsamples = 75\nvalue = [60, 15]"] ;
396 -> 397 ;
398 [label="X[1] <= 7.5\ngini = 0.49\nsamples = 7\nvalue = [4, 3]"] ;
397 -> 398 ;
399 [label="gini = 0.0\nsamples = 3\nvalue = [0, 3]"] ;
398 -> 399 ;
400 [label="gini = 0.0\nsamples = 4\nvalue = [4, 0]"] ;
398 -> 400 ;
401 [label="X[1] <= 6.5\ngini = 0.291\nsamples = 68\nvalue = [56, 12]"] ;
397 -> 401 ;
402 [label="gini = 0.0\nsamples = 9\nvalue = [9, 0]"] ;
401 -> 402 ;
403 [label="X[6] <= 33.0\ngini = 0.324\nsamples = 59\nvalue = [47, 12]"] ;
401 -> 403 ;
404 [label="gini = 0.0\nsamples = 3\nvalue = [3, 0]"] ;
403 -> 404 ;
405 [label="X[0] <= 28.5\ngini = 0.337\nsamples = 56\nvalue = [44, 12]"] ;
403 -> 405 ;
406 [label="X[4] <= 3.5\ngini = 0.408\nsamples = 21\nvalue = [15, 6]"] ;
405 -> 406 ;
407 [label="gini = 0.0\nsamples = 1\nvalue = [1, 0]"] ;
406 -> 407 ;
408 [label="X[1] <= 7.5\ngini = 0.42\nsamples = 20\nvalue = [14, 6]"] ;
406 -> 408 ;
409 [label="gini = 0.444\nsamples = 9\nvalue = [6, 3]"] ;
408 -> 409 ;
410 [label="gini = 0.397\nsamples = 11\nvalue = [8, 3]"] ;
408 -> 410 ;
411 [label="X[2] <= 1837.0\ngini = 0.284\nsamples = 35\nvalue = [29, 6]"] ;
405 -> 411 ;
412 [label="X[4] <= 3.5\ngini = 0.291\nsamples = 34\nvalue = [28, 6]"] ;
411 -> 412 ;
413 [label="gini = 0.0\nsamples = 1\nvalue = [1, 0]"] ;
412 -> 413 ;
414 [label="X[1] <= 7.5\ngini = 0.298\nsamples = 33\nvalue = [27, 6]"] ;
412 -> 414 ;
415 [label="gini = 0.245\nsamples = 7\nvalue = [6, 1]"] ;
414 -> 415 ;
416 [label="gini = 0.311\nsamples = 26\nvalue = [21, 5]"] ;
414 -> 416 ;
417 [label="gini = 0.0\nsamples = 1\nvalue = [1, 0]"] ;
411 -> 417 ;
418 [label="X[0] <= 28.5\ngini = 0.433\nsamples = 142\nvalue = [97, 45]"] ;
396 -> 418 ;
419 [label="X[6] <= 37.5\ngini = 0.378\nsamples = 75\nvalue = [56, 19]"] ;
418 -> 419 ;
420 [label="gini = 0.0\nsamples = 4\nvalue = [4, 0]"] ;
419 -> 420 ;
421 [label="X[2] <= 1551.5\ngini = 0.392\nsamples = 71\nvalue = [52, 19]"] ;
419 -> 421 ;
422 [label="X[3] <= 704.0\ngini = 0.386\nsamples = 69\nvalue = [51, 18]"] ;
421 -> 422 ;
423 [label="X[1] <= 9.5\ngini = 0.389\nsamples = 68\nvalue = [50, 18]"] ;
422 -> 423 ;
424 [label="X[4] <= 3.0\ngini = 0.393\nsamples = 67\nvalue = [49, 18]"] ;
423 -> 424 ;
425 [label="gini = 0.444\nsamples = 6\nvalue = [4, 2]"] ;
424 -> 425 ;
426 [label="gini = 0.387\nsamples = 61\nvalue = [45, 16]"] ;
424 -> 426 ;
427 [label="gini = 0.0\nsamples = 1\nvalue = [1, 0]"] ;
423 -> 427 ;
428 [label="gini = 0.0\nsamples = 1\nvalue = [1, 0]"] ;
422 -> 428 ;
429 [label="X[2] <= 4058.0\ngini = 0.5\nsamples = 2\nvalue = [1, 1]"] ;
421 -> 429 ;
430 [label="gini = 0.0\nsamples = 1\nvalue = [0, 1]"] ;
429 -> 430 ;
431 [label="gini = 0.0\nsamples = 1\nvalue = [1, 0]"] ;
429 -> 431 ;
432 [label="X[6] <= 9.5\ngini = 0.475\nsamples = 67\nvalue = [41, 26]"] ;
418 -> 432 ;
433 [label="gini = 0.0\nsamples = 3\nvalue = [3, 0]"] ;
432 -> 433 ;
434 [label="X[6] <= 10.5\ngini = 0.482\nsamples = 64\nvalue = [38, 26]"] ;
432 -> 434 ;
435 [label="gini = 0.0\nsamples = 1\nvalue = [0, 1]"] ;
434 -> 435 ;
436 [label="X[6] <= 28.5\ngini = 0.479\nsamples = 63\nvalue = [38, 25]"] ;
434 -> 436 ;
437 [label="gini = 0.0\nsamples = 3\nvalue = [3, 0]"] ;
436 -> 437 ;
438 [label="X[4] <= 3.0\ngini = 0.486\nsamples = 60\nvalue = [35, 25]"] ;
436 -> 438 ;
439 [label="X[4] <= 1.5\ngini = 0.375\nsamples = 4\nvalue = [1, 3]"] ;
438 -> 439 ;
440 [label="gini = 0.0\nsamples = 1\nvalue = [0, 1]"] ;
439 -> 440 ;
441 [label="gini = 0.444\nsamples = 3\nvalue = [1, 2]"] ;
439 -> 441 ;
442 [label="X[1] <= 9.5\ngini = 0.477\nsamples = 56\nvalue = [34, 22]"] ;
438 -> 442 ;
443 [label="X[6] <= 40.0\ngini = 0.464\nsamples = 52\nvalue = [33, 19]"] ;
442 -> 443 ;
444 [label="X[2] <= 3876.5\ngini = 0.457\nsamples = 51\nvalue = [33, 18]"] ;
443 -> 444 ;
445 [label="X[2] <= 1551.5\ngini = 0.461\nsamples = 50\nvalue = [32, 18]"] ;
444 -> 445 ;
446 [label="gini = 0.453\nsamples = 49\nvalue = [32, 17]"] ;
445 -> 446 ;
447 [label="gini = 0.0\nsamples = 1\nvalue = [0, 1]"] ;
445 -> 447 ;
448 [label="gini = 0.0\nsamples = 1\nvalue = [1, 0]"] ;
444 -> 448 ;
449 [label="gini = 0.0\nsamples = 1\nvalue = [0, 1]"] ;
443 -> 449 ;
450 [label="gini = 0.375\nsamples = 4\nvalue = [1, 3]"] ;
442 -> 450 ;
451 [label="X[5] <= 0.5\ngini = 0.145\nsamples = 1403\nvalue = [1293, 110]"] ;
285 -> 451 ;
452 [label="X[2] <= 4225.0\ngini = 0.089\nsamples = 469\nvalue = [447, 22]"] ;
451 -> 452 ;
453 [label="X[0] <= 26.5\ngini = 0.086\nsamples = 468\nvalue = [447, 21]"] ;
452 -> 453 ;
454 [label="X[1] <= 11.5\ngini = 0.017\nsamples = 114\nvalue = [113, 1]"] ;
453 -> 454 ;
455 [label="X[4] <= 3.5\ngini = 0.038\nsamples = 51\nvalue = [50, 1]"] ;
454 -> 455 ;
456 [label="gini = 0.0\nsamples = 13\nvalue = [13, 0]"] ;
455 -> 456 ;
457 [label="X[6] <= 32.5\ngini = 0.051\nsamples = 38\nvalue = [37, 1]"] ;
455 -> 457 ;
458 [label="gini = 0.0\nsamples = 2\nvalue = [2, 0]"] ;
457 -> 458 ;
459 [label="X[2] <= 1177.0\ngini = 0.054\nsamples = 36\nvalue = [35, 1]"] ;
457 -> 459 ;
460 [label="gini = 0.056\nsamples = 35\nvalue = [34, 1]"] ;
459 -> 460 ;
461 [label="gini = 0.0\nsamples = 1\nvalue = [1, 0]"] ;
459 -> 461 ;
462 [label="gini = 0.0\nsamples = 63\nvalue = [63, 0]"] ;
454 -> 462 ;
463 [label="X[1] <= 11.5\ngini = 0.107\nsamples = 354\nvalue = [334, 20]"] ;
453 -> 463 ;
464 [label="X[6] <= 3.5\ngini = 0.062\nsamples = 188\nvalue = [182, 6]"] ;
463 -> 464 ;
465 [label="X[4] <= 1.5\ngini = 0.5\nsamples = 2\nvalue = [1, 1]"] ;
464 -> 465 ;
466 [label="gini = 0.0\nsamples = 1\nvalue = [0, 1]"] ;
465 -> 466 ;
467 [label="gini = 0.0\nsamples = 1\nvalue = [1, 0]"] ;
465 -> 467 ;
468 [label="X[4] <= 3.5\ngini = 0.052\nsamples = 186\nvalue = [181, 5]"] ;
464 -> 468 ;
469 [label="gini = 0.0\nsamples = 45\nvalue = [45, 0]"] ;
468 -> 469 ;
470 [label="X[6] <= 36.5\ngini = 0.068\nsamples = 141\nvalue = [136, 5]"] ;
468 -> 470 ;
471 [label="gini = 0.0\nsamples = 12\nvalue = [12, 0]"] ;
470 -> 471 ;
472 [label="X[2] <= 1101.0\ngini = 0.075\nsamples = 129\nvalue = [124, 5]"] ;
470 -> 472 ;
473 [label="X[0] <= 27.5\ngini = 0.077\nsamples = 124\nvalue = [119, 5]"] ;
472 -> 473 ;
474 [label="gini = 0.097\nsamples = 39\nvalue = [37, 2]"] ;
473 -> 474 ;
475 [label="X[0] <= 28.5\ngini = 0.068\nsamples = 85\nvalue = [82, 3]"] ;
473 -> 475 ;
476 [label="gini = 0.05\nsamples = 39\nvalue = [38, 1]"] ;
475 -> 476 ;
477 [label="gini = 0.083\nsamples = 46\nvalue = [44, 2]"] ;
475 -> 477 ;
478 [label="gini = 0.0\nsamples = 5\nvalue = [5, 0]"] ;
472 -> 478 ;
479 [label="X[1] <= 14.5\ngini = 0.154\nsamples = 166\nvalue = [152, 14]"] ;
463 -> 479 ;
480 [label="X[6] <= 26.5\ngini = 0.328\nsamples = 29\nvalue = [23, 6]"] ;
479 -> 480 ;
481 [label="gini = 0.0\nsamples = 1\nvalue = [0, 1]"] ;
480 -> 481 ;
482 [label="X[0] <= 27.5\ngini = 0.293\nsamples = 28\nvalue = [23, 5]"] ;
480 -> 482 ;
483 [label="X[1] <= 13.0\ngini = 0.18\nsamples = 10\nvalue = [9, 1]"] ;
482 -> 483 ;
484 [label="gini = 0.0\nsamples = 6\nvalue = [6, 0]"] ;
483 -> 484 ;
485 [label="gini = 0.375\nsamples = 4\nvalue = [3, 1]"] ;
483 -> 485 ;
486 [label="X[1] <= 13.0\ngini = 0.346\nsamples = 18\nvalue = [14, 4]"] ;
482 -> 486 ;
487 [label="X[4] <= 3.0\ngini = 0.391\nsamples = 15\nvalue = [11, 4]"] ;
486 -> 487 ;
488 [label="gini = 0.0\nsamples = 2\nvalue = [2, 0]"] ;
487 -> 488 ;
489 [label="X[0] <= 28.5\ngini = 0.426\nsamples = 13\nvalue = [9, 4]"] ;
487 -> 489 ;
490 [label="gini = 0.444\nsamples = 6\nvalue = [4, 2]"] ;
489 -> 490 ;
491 [label="gini = 0.408\nsamples = 7\nvalue = [5, 2]"] ;
489 -> 491 ;
492 [label="gini = 0.0\nsamples = 3\nvalue = [3, 0]"] ;
486 -> 492 ;
493 [label="X[4] <= 3.0\ngini = 0.11\nsamples = 137\nvalue = [129, 8]"] ;
479 -> 493 ;
494 [label="gini = 0.0\nsamples = 25\nvalue = [25, 0]"] ;
493 -> 494 ;
495 [label="X[6] <= 34.0\ngini = 0.133\nsamples = 112\nvalue = [104, 8]"] ;
493 -> 495 ;
496 [label="gini = 0.0\nsamples = 7\nvalue = [7, 0]"] ;
495 -> 496 ;
497 [label="X[0] <= 27.5\ngini = 0.141\nsamples = 105\nvalue = [97, 8]"] ;
495 -> 497 ;
498 [label="gini = 0.176\nsamples = 41\nvalue = [37, 4]"] ;
497 -> 498 ;
499 [label="X[0] <= 28.5\ngini = 0.117\nsamples = 64\nvalue = [60, 4]"] ;
497 -> 499 ;
500 [label="X[2] <= 2032.0\ngini = 0.061\nsamples = 32\nvalue = [31, 1]"] ;
499 -> 500 ;
501 [label="gini = 0.062\nsamples = 31\nvalue = [30, 1]"] ;
500 -> 501 ;
502 [label="gini = 0.0\nsamples = 1\nvalue = [1, 0]"] ;
500 -> 502 ;
503 [label="X[3] <= 704.0\ngini = 0.17\nsamples = 32\nvalue = [29, 3]"] ;
499 -> 503 ;
504 [label="gini = 0.175\nsamples = 31\nvalue = [28, 3]"] ;
503 -> 504 ;
505 [label="gini = 0.0\nsamples = 1\nvalue = [1, 0]"] ;
503 -> 505 ;
506 [label="gini = 0.0\nsamples = 1\nvalue = [0, 1]"] ;
452 -> 506 ;
507 [label="X[1] <= 11.5\ngini = 0.171\nsamples = 934\nvalue = [846, 88]"] ;
451 -> 507 ;
508 [label="X[6] <= 38.0\ngini = 0.139\nsamples = 573\nvalue = [530, 43]"] ;
507 -> 508 ;
509 [label="X[6] <= 1.0\ngini = 0.038\nsamples = 51\nvalue = [50, 1]"] ;
508 -> 509 ;
510 [label="X[0] <= 26.5\ngini = 0.278\nsamples = 6\nvalue = [5, 1]"] ;
509 -> 510 ;
511 [label="gini = 0.0\nsamples = 3\nvalue = [3, 0]"] ;
510 -> 511 ;
512 [label="X[0] <= 27.5\ngini = 0.444\nsamples = 3\nvalue = [2, 1]"] ;
510 -> 512 ;
513 [label="gini = 0.0\nsamples = 1\nvalue = [0, 1]"] ;
512 -> 513 ;
514 [label="gini = 0.0\nsamples = 2\nvalue = [2, 0]"] ;
512 -> 514 ;
515 [label="gini = 0.0\nsamples = 45\nvalue = [45, 0]"] ;
509 -> 515 ;
516 [label="X[0] <= 28.5\ngini = 0.148\nsamples = 522\nvalue = [480, 42]"] ;
508 -> 516 ;
517 [label="X[4] <= 1.5\ngini = 0.129\nsamples = 390\nvalue = [363, 27]"] ;
516 -> 517 ;
518 [label="X[0] <= 26.5\ngini = 0.397\nsamples = 11\nvalue = [8, 3]"] ;
517 -> 518 ;
519 [label="gini = 0.444\nsamples = 3\nvalue = [1, 2]"] ;
518 -> 519 ;
520 [label="X[0] <= 27.5\ngini = 0.219\nsamples = 8\nvalue = [7, 1]"] ;
518 -> 520 ;
521 [label="X[4] <= 0.5\ngini = 0.32\nsamples = 5\nvalue = [4, 1]"] ;
520 -> 521 ;
522 [label="gini = 0.375\nsamples = 4\nvalue = [3, 1]"] ;
521 -> 522 ;
523 [label="gini = 0.0\nsamples = 1\nvalue = [1, 0]"] ;
521 -> 523 ;
524 [label="gini = 0.0\nsamples = 3\nvalue = [3, 0]"] ;
520 -> 524 ;
525 [label="X[2] <= 3257.0\ngini = 0.119\nsamples = 379\nvalue = [355, 24]"] ;
517 -> 525 ;
526 [label="X[2] <= 2994.0\ngini = 0.121\nsamples = 371\nvalue = [347, 24]"] ;
525 -> 526 ;
527 [label="X[0] <= 26.5\ngini = 0.117\nsamples = 370\nvalue = [347, 23]"] ;
526 -> 527 ;
528 [label="X[4] <= 3.5\ngini = 0.089\nsamples = 128\nvalue = [122, 6]"] ;
527 -> 528 ;
529 [label="gini = 0.0\nsamples = 15\nvalue = [15, 0]"] ;
528 -> 529 ;
530 [label="X[2] <= 1298.5\ngini = 0.101\nsamples = 113\nvalue = [107, 6]"] ;
528 -> 530 ;
531 [label="gini = 0.102\nsamples = 111\nvalue = [105, 6]"] ;
530 -> 531 ;
532 [label="gini = 0.0\nsamples = 2\nvalue = [2, 0]"] ;
530 -> 532 ;
533 [label="X[2] <= 1087.0\ngini = 0.131\nsamples = 242\nvalue = [225, 17]"] ;
527 -> 533 ;
534 [label="X[0] <= 27.5\ngini = 0.134\nsamples = 235\nvalue = [218, 17]"] ;
533 -> 534 ;
535 [label="X[4] <= 2.5\ngini = 0.158\nsamples = 104\nvalue = [95, 9]"] ;
534 -> 535 ;
536 [label="gini = 0.231\nsamples = 15\nvalue = [13, 2]"] ;
535 -> 536 ;
537 [label="X[4] <= 3.5\ngini = 0.145\nsamples = 89\nvalue = [82, 7]"] ;
535 -> 537 ;
538 [label="gini = 0.0\nsamples = 1\nvalue = [1, 0]"] ;
537 -> 538 ;
539 [label="gini = 0.146\nsamples = 88\nvalue = [81, 7]"] ;
537 -> 539 ;
540 [label="X[4] <= 3.5\ngini = 0.115\nsamples = 131\nvalue = [123, 8]"] ;
534 -> 540 ;
541 [label="gini = 0.0\nsamples = 17\nvalue = [17, 0]"] ;
540 -> 541 ;
542 [label="gini = 0.131\nsamples = 114\nvalue = [106, 8]"] ;
540 -> 542 ;
543 [label="gini = 0.0\nsamples = 7\nvalue = [7, 0]"] ;
533 -> 543 ;
544 [label="gini = 0.0\nsamples = 1\nvalue = [0, 1]"] ;
526 -> 544 ;
545 [label="gini = 0.0\nsamples = 8\nvalue = [8, 0]"] ;
525 -> 545 ;
546 [label="X[4] <= 3.5\ngini = 0.201\nsamples = 132\nvalue = [117, 15]"] ;
516 -> 546 ;
547 [label="X[4] <= 1.5\ngini = 0.083\nsamples = 23\nvalue = [22, 1]"] ;
546 -> 547 ;
548 [label="gini = 0.0\nsamples = 5\nvalue = [5, 0]"] ;
547 -> 548 ;
549 [label="X[4] <= 2.5\ngini = 0.105\nsamples = 18\nvalue = [17, 1]"] ;
547 -> 549 ;
550 [label="gini = 0.117\nsamples = 16\nvalue = [15, 1]"] ;
549 -> 550 ;
551 [label="gini = 0.0\nsamples = 2\nvalue = [2, 0]"] ;
549 -> 551 ;
552 [label="X[3] <= 704.0\ngini = 0.224\nsamples = 109\nvalue = [95, 14]"] ;
546 -> 552 ;
553 [label="X[2] <= 1087.0\ngini = 0.226\nsamples = 108\nvalue = [94, 14]"] ;
552 -> 553 ;
554 [label="gini = 0.227\nsamples = 107\nvalue = [93, 14]"] ;
553 -> 554 ;
555 [label="gini = 0.0\nsamples = 1\nvalue = [1, 0]"] ;
553 -> 555 ;
556 [label="gini = 0.0\nsamples = 1\nvalue = [1, 0]"] ;
552 -> 556 ;
557 [label="X[1] <= 14.5\ngini = 0.218\nsamples = 361\nvalue = [316, 45]"] ;
507 -> 557 ;
558 [label="X[0] <= 26.5\ngini = 0.351\nsamples = 66\nvalue = [51, 15]"] ;
557 -> 558 ;
559 [label="gini = 0.0\nsamples = 6\nvalue = [6, 0]"] ;
558 -> 559 ;
560 [label="X[4] <= 3.0\ngini = 0.375\nsamples = 60\nvalue = [45, 15]"] ;
558 -> 560 ;
561 [label="X[6] <= 20.0\ngini = 0.165\nsamples = 11\nvalue = [10, 1]"] ;
560 -> 561 ;
562 [label="X[6] <= 10.0\ngini = 0.5\nsamples = 2\nvalue = [1, 1]"] ;
561 -> 562 ;
563 [label="gini = 0.0\nsamples = 1\nvalue = [1, 0]"] ;
562 -> 563 ;
564 [label="gini = 0.0\nsamples = 1\nvalue = [0, 1]"] ;
562 -> 564 ;
565 [label="gini = 0.0\nsamples = 9\nvalue = [9, 0]"] ;
561 -> 565 ;
566 [label="X[0] <= 27.5\ngini = 0.408\nsamples = 49\nvalue = [35, 14]"] ;
560 -> 566 ;
567 [label="X[1] <= 13.0\ngini = 0.231\nsamples = 15\nvalue = [13, 2]"] ;
566 -> 567 ;
568 [label="X[6] <= 36.5\ngini = 0.153\nsamples = 12\nvalue = [11, 1]"] ;
567 -> 568 ;
569 [label="gini = 0.0\nsamples = 2\nvalue = [2, 0]"] ;
568 -> 569 ;
570 [label="gini = 0.18\nsamples = 10\nvalue = [9, 1]"] ;
568 -> 570 ;
571 [label="gini = 0.444\nsamples = 3\nvalue = [2, 1]"] ;
567 -> 571 ;
572 [label="X[6] <= 5.0\ngini = 0.457\nsamples = 34\nvalue = [22, 12]"] ;
566 -> 572 ;
573 [label="gini = 0.0\nsamples = 2\nvalue = [2, 0]"] ;
572 -> 573 ;
574 [label="X[6] <= 10.5\ngini = 0.469\nsamples = 32\nvalue = [20, 12]"] ;
572 -> 574 ;
575 [label="gini = 0.0\nsamples = 1\nvalue = [0, 1]"] ;
574 -> 575 ;
576 [label="X[2] <= 1088.0\ngini = 0.458\nsamples = 31\nvalue = [20, 11]"] ;
574 -> 576 ;
577 [label="X[6] <= 16.5\ngini = 0.464\nsamples = 30\nvalue = [19, 11]"] ;
576 -> 577 ;
578 [label="gini = 0.0\nsamples = 1\nvalue = [1, 0]"] ;
577 -> 578 ;
579 [label="X[6] <= 28.0\ngini = 0.471\nsamples = 29\nvalue = [18, 11]"] ;
577 -> 579 ;
580 [label="gini = 0.0\nsamples = 1\nvalue = [0, 1]"] ;
579 -> 580 ;
581 [label="X[6] <= 36.5\ngini = 0.459\nsamples = 28\nvalue = [18, 10]"] ;
579 -> 581 ;
582 [label="gini = 0.0\nsamples = 1\nvalue = [1, 0]"] ;
581 -> 582 ;
583 [label="X[1] <= 13.0\ngini = 0.466\nsamples = 27\nvalue = [17, 10]"] ;
581 -> 583 ;
584 [label="X[0] <= 28.5\ngini = 0.484\nsamples = 17\nvalue = [10, 7]"] ;
583 -> 584 ;
585 [label="gini = 0.494\nsamples = 9\nvalue = [5, 4]"] ;
584 -> 585 ;
586 [label="gini = 0.469\nsamples = 8\nvalue = [5, 3]"] ;
584 -> 586 ;
587 [label="X[0] <= 28.5\ngini = 0.42\nsamples = 10\nvalue = [7, 3]"] ;
583 -> 587 ;
588 [label="gini = 0.278\nsamples = 6\nvalue = [5, 1]"] ;
587 -> 588 ;
589 [label="gini = 0.5\nsamples = 4\nvalue = [2, 2]"] ;
587 -> 589 ;
590 [label="gini = 0.0\nsamples = 1\nvalue = [1, 0]"] ;
576 -> 590 ;
591 [label="X[6] <= 7.5\ngini = 0.183\nsamples = 295\nvalue = [265, 30]"] ;
557 -> 591 ;
592 [label="X[4] <= 1.5\ngini = 0.444\nsamples = 9\nvalue = [6, 3]"] ;
591 -> 592 ;
593 [label="gini = 0.0\nsamples = 1\nvalue = [0, 1]"] ;
592 -> 593 ;
594 [label="X[4] <= 2.5\ngini = 0.375\nsamples = 8\nvalue = [6, 2]"] ;
592 -> 594 ;
595 [label="gini = 0.0\nsamples = 2\nvalue = [2, 0]"] ;
594 -> 595 ;
596 [label="X[6] <= 5.5\ngini = 0.444\nsamples = 6\nvalue = [4, 2]"] ;
594 -> 596 ;
597 [label="X[0] <= 28.5\ngini = 0.375\nsamples = 4\nvalue = [3, 1]"] ;
596 -> 597 ;
598 [label="gini = 0.0\nsamples = 3\nvalue = [3, 0]"] ;
597 -> 598 ;
599 [label="gini = 0.0\nsamples = 1\nvalue = [0, 1]"] ;
597 -> 599 ;
600 [label="X[0] <= 28.0\ngini = 0.5\nsamples = 2\nvalue = [1, 1]"] ;
596 -> 600 ;
601 [label="gini = 0.0\nsamples = 1\nvalue = [0, 1]"] ;
600 -> 601 ;
602 [label="gini = 0.0\nsamples = 1\nvalue = [1, 0]"] ;
600 -> 602 ;
603 [label="X[2] <= 2966.0\ngini = 0.171\nsamples = 286\nvalue = [259, 27]"] ;
591 -> 603 ;
604 [label="X[4] <= 3.5\ngini = 0.163\nsamples = 280\nvalue = [255, 25]"] ;
603 -> 604 ;
605 [label="X[0] <= 27.5\ngini = 0.074\nsamples = 52\nvalue = [50, 2]"] ;
604 -> 605 ;
606 [label="X[0] <= 26.5\ngini = 0.153\nsamples = 24\nvalue = [22, 2]"] ;
605 -> 606 ;
607 [label="gini = 0.0\nsamples = 10\nvalue = [10, 0]"] ;
606 -> 607 ;
608 [label="X[6] <= 32.5\ngini = 0.245\nsamples = 14\nvalue = [12, 2]"] ;
606 -> 608 ;
609 [label="X[6] <= 24.5\ngini = 0.5\nsamples = 2\nvalue = [1, 1]"] ;
608 -> 609 ;
610 [label="gini = 0.0\nsamples = 1\nvalue = [1, 0]"] ;
609 -> 610 ;
611 [label="gini = 0.0\nsamples = 1\nvalue = [0, 1]"] ;
609 -> 611 ;
612 [label="X[6] <= 37.0\ngini = 0.153\nsamples = 12\nvalue = [11, 1]"] ;
608 -> 612 ;
613 [label="gini = 0.0\nsamples = 1\nvalue = [1, 0]"] ;
612 -> 613 ;
614 [label="X[4] <= 2.5\ngini = 0.165\nsamples = 11\nvalue = [10, 1]"] ;
612 -> 614 ;
615 [label="gini = 0.18\nsamples = 10\nvalue = [9, 1]"] ;
614 -> 615 ;
616 [label="gini = 0.0\nsamples = 1\nvalue = [1, 0]"] ;
614 -> 616 ;
617 [label="gini = 0.0\nsamples = 28\nvalue = [28, 0]"] ;
605 -> 617 ;
618 [label="X[6] <= 36.0\ngini = 0.181\nsamples = 228\nvalue = [205, 23]"] ;
604 -> 618 ;
619 [label="gini = 0.0\nsamples = 12\nvalue = [12, 0]"] ;
618 -> 619 ;
620 [label="X[0] <= 28.5\ngini = 0.19\nsamples = 216\nvalue = [193, 23]"] ;
618 -> 620 ;
621 [label="X[2] <= 1087.0\ngini = 0.207\nsamples = 162\nvalue = [143, 19]"] ;
620 -> 621 ;
622 [label="X[0] <= 27.5\ngini = 0.212\nsamples = 158\nvalue = [139, 19]"] ;
621 -> 622 ;
623 [label="X[0] <= 26.5\ngini = 0.201\nsamples = 115\nvalue = [102, 13]"] ;
622 -> 623 ;
624 [label="gini = 0.206\nsamples = 60\nvalue = [53, 7]"] ;
623 -> 624 ;
625 [label="gini = 0.194\nsamples = 55\nvalue = [49, 6]"] ;
623 -> 625 ;
626 [label="gini = 0.24\nsamples = 43\nvalue = [37, 6]"] ;
622 -> 626 ;
627 [label="gini = 0.0\nsamples = 4\nvalue = [4, 0]"] ;
621 -> 627 ;
628 [label="X[2] <= 1101.0\ngini = 0.137\nsamples = 54\nvalue = [50, 4]"] ;
620 -> 628 ;
629 [label="gini = 0.14\nsamples = 53\nvalue = [49, 4]"] ;
628 -> 629 ;
630 [label="gini = 0.0\nsamples = 1\nvalue = [1, 0]"] ;
628 -> 630 ;
631 [label="X[2] <= 3257.0\ngini = 0.444\nsamples = 6\nvalue = [4, 2]"] ;
603 -> 631 ;
632 [label="gini = 0.0\nsamples = 1\nvalue = [0, 1]"] ;
631 -> 632 ;
633 [label="X[2] <= 4225.0\ngini = 0.32\nsamples = 5\nvalue = [4, 1]"] ;
631 -> 633 ;
634 [label="gini = 0.0\nsamples = 3\nvalue = [3, 0]"] ;
633 -> 634 ;
635 [label="X[2] <= 4699.5\ngini = 0.5\nsamples = 2\nvalue = [1, 1]"] ;
633 -> 635 ;
636 [label="gini = 0.0\nsamples = 1\nvalue = [0, 1]"] ;
635 -> 636 ;
637 [label="gini = 0.0\nsamples = 1\nvalue = [1, 0]"] ;
635 -> 637 ;
638 [label="X[3] <= 1568.5\ngini = 0.456\nsamples = 74\nvalue = [48, 26]"] ;
256 -> 638 ;
639 [label="X[0] <= 27.5\ngini = 0.32\nsamples = 10\nvalue = [2, 8]"] ;
638 -> 639 ;
640 [label="X[3] <= 1494.5\ngini = 0.444\nsamples = 3\nvalue = [2, 1]"] ;
639 -> 640 ;
641 [label="gini = 0.0\nsamples = 1\nvalue = [0, 1]"] ;
640 -> 641 ;
642 [label="gini = 0.0\nsamples = 2\nvalue = [2, 0]"] ;
640 -> 642 ;
643 [label="gini = 0.0\nsamples = 7\nvalue = [0, 7]"] ;
639 -> 643 ;
644 [label="X[3] <= 1805.0\ngini = 0.404\nsamples = 64\nvalue = [46, 18]"] ;
638 -> 644 ;
645 [label="gini = 0.0\nsamples = 20\nvalue = [20, 0]"] ;
644 -> 645 ;
646 [label="X[3] <= 1978.5\ngini = 0.483\nsamples = 44\nvalue = [26, 18]"] ;
644 -> 646 ;
647 [label="X[3] <= 1881.5\ngini = 0.473\nsamples = 26\nvalue = [10, 16]"] ;
646 -> 647 ;
648 [label="X[3] <= 1862.0\ngini = 0.444\nsamples = 9\nvalue = [6, 3]"] ;
647 -> 648 ;
649 [label="gini = 0.0\nsamples = 3\nvalue = [0, 3]"] ;
648 -> 649 ;
650 [label="gini = 0.0\nsamples = 6\nvalue = [6, 0]"] ;
648 -> 650 ;
651 [label="X[3] <= 1894.5\ngini = 0.36\nsamples = 17\nvalue = [4, 13]"] ;
647 -> 651 ;
652 [label="gini = 0.0\nsamples = 7\nvalue = [0, 7]"] ;
651 -> 652 ;
653 [label="X[3] <= 1975.5\ngini = 0.48\nsamples = 10\nvalue = [4, 6]"] ;
651 -> 653 ;
654 [label="X[1] <= 5.0\ngini = 0.444\nsamples = 6\nvalue = [4, 2]"] ;
653 -> 654 ;
655 [label="gini = 0.0\nsamples = 1\nvalue = [0, 1]"] ;
654 -> 655 ;
656 [label="X[1] <= 13.5\ngini = 0.32\nsamples = 5\nvalue = [4, 1]"] ;
654 -> 656 ;
657 [label="gini = 0.0\nsamples = 4\nvalue = [4, 0]"] ;
656 -> 657 ;
658 [label="gini = 0.0\nsamples = 1\nvalue = [0, 1]"] ;
656 -> 658 ;
659 [label="gini = 0.0\nsamples = 4\nvalue = [0, 4]"] ;
653 -> 659 ;
660 [label="X[3] <= 2205.0\ngini = 0.198\nsamples = 18\nvalue = [16, 2]"] ;
646 -> 660 ;
661 [label="gini = 0.0\nsamples = 10\nvalue = [10, 0]"] ;
660 -> 661 ;
662 [label="X[3] <= 2234.5\ngini = 0.375\nsamples = 8\nvalue = [6, 2]"] ;
660 -> 662 ;
663 [label="gini = 0.0\nsamples = 1\nvalue = [0, 1]"] ;
662 -> 663 ;
664 [label="X[0] <= 28.5\ngini = 0.245\nsamples = 7\nvalue = [6, 1]"] ;
662 -> 664 ;
665 [label="gini = 0.0\nsamples = 5\nvalue = [5, 0]"] ;
664 -> 665 ;
666 [label="X[3] <= 2506.0\ngini = 0.5\nsamples = 2\nvalue = [1, 1]"] ;
664 -> 666 ;
667 [label="gini = 0.0\nsamples = 1\nvalue = [0, 1]"] ;
666 -> 667 ;
668 [label="gini = 0.0\nsamples = 1\nvalue = [1, 0]"] ;
666 -> 668 ;
669 [label="X[3] <= 1820.5\ngini = 0.399\nsamples = 16072\nvalue = [11642, 4430]"] ;
1 -> 669 ;
670 [label="X[5] <= 0.5\ngini = 0.38\nsamples = 15400\nvalue = [11474, 3926]"] ;
669 -> 670 ;
671 [label="X[1] <= 6.5\ngini = 0.206\nsamples = 4776\nvalue = [4218, 558]"] ;
670 -> 671 ;
672 [label="X[6] <= 39.5\ngini = 0.04\nsamples = 533\nvalue = [522, 11]"] ;
671 -> 672 ;
673 [label="X[4] <= 1.5\ngini = 0.033\nsamples = 530\nvalue = [521, 9]"] ;
672 -> 673 ;
674 [label="X[0] <= 54.0\ngini = 0.172\nsamples = 21\nvalue = [19, 2]"] ;
673 -> 674 ;
675 [label="gini = 0.0\nsamples = 13\nvalue = [13, 0]"] ;
674 -> 675 ;
676 [label="X[0] <= 57.5\ngini = 0.375\nsamples = 8\nvalue = [6, 2]"] ;
674 -> 676 ;
677 [label="gini = 0.0\nsamples = 1\nvalue = [0, 1]"] ;
676 -> 677 ;
678 [label="X[1] <= 5.5\ngini = 0.245\nsamples = 7\nvalue = [6, 1]"] ;
676 -> 678 ;
679 [label="gini = 0.0\nsamples = 6\nvalue = [6, 0]"] ;
678 -> 679 ;
680 [label="gini = 0.0\nsamples = 1\nvalue = [0, 1]"] ;
678 -> 680 ;
681 [label="X[6] <= 3.0\ngini = 0.027\nsamples = 509\nvalue = [502, 7]"] ;
673 -> 681 ;
682 [label="X[0] <= 44.0\ngini = 0.219\nsamples = 8\nvalue = [7, 1]"] ;
681 -> 682 ;
683 [label="X[4] <= 3.0\ngini = 0.5\nsamples = 2\nvalue = [1, 1]"] ;
682 -> 683 ;
684 [label="gini = 0.0\nsamples = 1\nvalue = [1, 0]"] ;
683 -> 684 ;
685 [label="gini = 0.0\nsamples = 1\nvalue = [0, 1]"] ;
683 -> 685 ;
686 [label="gini = 0.0\nsamples = 6\nvalue = [6, 0]"] ;
682 -> 686 ;
687 [label="X[0] <= 54.5\ngini = 0.024\nsamples = 501\nvalue = [495, 6]"] ;
681 -> 687 ;
688 [label="X[0] <= 53.5\ngini = 0.036\nsamples = 328\nvalue = [322, 6]"] ;
687 -> 688 ;
689 [label="X[0] <= 33.5\ngini = 0.025\nsamples = 321\nvalue = [317, 4]"] ;
688 -> 689 ;
690 [label="X[1] <= 2.5\ngini = 0.061\nsamples = 64\nvalue = [62, 2]"] ;
689 -> 690 ;
691 [label="X[1] <= 1.5\ngini = 0.089\nsamples = 43\nvalue = [41, 2]"] ;
690 -> 691 ;
692 [label="X[0] <= 32.5\ngini = 0.056\nsamples = 35\nvalue = [34, 1]"] ;
691 -> 692 ;
693 [label="gini = 0.0\nsamples = 24\nvalue = [24, 0]"] ;
692 -> 693 ;
694 [label="X[1] <= 0.5\ngini = 0.165\nsamples = 11\nvalue = [10, 1]"] ;
692 -> 694 ;
695 [label="gini = 0.0\nsamples = 5\nvalue = [5, 0]"] ;
694 -> 695 ;
696 [label="X[4] <= 3.0\ngini = 0.278\nsamples = 6\nvalue = [5, 1]"] ;
694 -> 696 ;
697 [label="gini = 0.0\nsamples = 1\nvalue = [1, 0]"] ;
696 -> 697 ;
698 [label="gini = 0.32\nsamples = 5\nvalue = [4, 1]"] ;
696 -> 698 ;
699 [label="X[0] <= 31.5\ngini = 0.219\nsamples = 8\nvalue = [7, 1]"] ;
691 -> 699 ;
700 [label="X[0] <= 30.5\ngini = 0.375\nsamples = 4\nvalue = [3, 1]"] ;
699 -> 700 ;
701 [label="gini = 0.0\nsamples = 1\nvalue = [1, 0]"] ;
700 -> 701 ;
702 [label="gini = 0.444\nsamples = 3\nvalue = [2, 1]"] ;
700 -> 702 ;
703 [label="gini = 0.0\nsamples = 4\nvalue = [4, 0]"] ;
699 -> 703 ;
704 [label="gini = 0.0\nsamples = 21\nvalue = [21, 0]"] ;
690 -> 704 ;
705 [label="X[0] <= 51.5\ngini = 0.015\nsamples = 257\nvalue = [255, 2]"] ;
689 -> 705 ;
706 [label="X[1] <= 5.5\ngini = 0.009\nsamples = 224\nvalue = [223, 1]"] ;
705 -> 706 ;
707 [label="gini = 0.0\nsamples = 188\nvalue = [188, 0]"] ;
706 -> 707 ;
708 [label="X[0] <= 44.5\ngini = 0.054\nsamples = 36\nvalue = [35, 1]"] ;
706 -> 708 ;
709 [label="gini = 0.0\nsamples = 20\nvalue = [20, 0]"] ;
708 -> 709 ;
710 [label="X[0] <= 45.5\ngini = 0.117\nsamples = 16\nvalue = [15, 1]"] ;
708 -> 710 ;
711 [label="X[4] <= 3.5\ngini = 0.5\nsamples = 2\nvalue = [1, 1]"] ;
710 -> 711 ;
712 [label="gini = 0.0\nsamples = 1\nvalue = [1, 0]"] ;
711 -> 712 ;
713 [label="gini = 0.0\nsamples = 1\nvalue = [0, 1]"] ;
711 -> 713 ;
714 [label="gini = 0.0\nsamples = 14\nvalue = [14, 0]"] ;
710 -> 714 ;
715 [label="X[4] <= 2.5\ngini = 0.059\nsamples = 33\nvalue = [32, 1]"] ;
705 -> 715 ;
716 [label="X[1] <= 2.5\ngini = 0.153\nsamples = 12\nvalue = [11, 1]"] ;
715 -> 716 ;
717 [label="X[1] <= 1.5\ngini = 0.375\nsamples = 4\nvalue = [3, 1]"] ;
716 -> 717 ;
718 [label="gini = 0.0\nsamples = 2\nvalue = [2, 0]"] ;
717 -> 718 ;
719 [label="gini = 0.5\nsamples = 2\nvalue = [1, 1]"] ;
717 -> 719 ;
720 [label="gini = 0.0\nsamples = 8\nvalue = [8, 0]"] ;
716 -> 720 ;
721 [label="gini = 0.0\nsamples = 21\nvalue = [21, 0]"] ;
715 -> 721 ;
722 [label="X[1] <= 0.5\ngini = 0.408\nsamples = 7\nvalue = [5, 2]"] ;
688 -> 722 ;
723 [label="gini = 0.0\nsamples = 2\nvalue = [2, 0]"] ;
722 -> 723 ;
724 [label="X[1] <= 2.0\ngini = 0.48\nsamples = 5\nvalue = [3, 2]"] ;
722 -> 724 ;
725 [label="X[4] <= 3.0\ngini = 0.444\nsamples = 3\nvalue = [1, 2]"] ;
724 -> 725 ;
726 [label="gini = 0.5\nsamples = 2\nvalue = [1, 1]"] ;
725 -> 726 ;
727 [label="gini = 0.0\nsamples = 1\nvalue = [0, 1]"] ;
725 -> 727 ;
728 [label="gini = 0.0\nsamples = 2\nvalue = [2, 0]"] ;
724 -> 728 ;
729 [label="gini = 0.0\nsamples = 173\nvalue = [173, 0]"] ;
687 -> 729 ;
730 [label="X[1] <= 3.5\ngini = 0.444\nsamples = 3\nvalue = [1, 2]"] ;
672 -> 730 ;
731 [label="gini = 0.0\nsamples = 1\nvalue = [1, 0]"] ;
730 -> 731 ;
732 [label="gini = 0.0\nsamples = 2\nvalue = [0, 2]"] ;
730 -> 732 ;
733 [label="X[1] <= 10.5\ngini = 0.225\nsamples = 4243\nvalue = [3696, 547]"] ;
671 -> 733 ;
734 [label="X[1] <= 8.5\ngini = 0.329\nsamples = 1182\nvalue = [937, 245]"] ;
733 -> 734 ;
735 [label="X[3] <= 1432.5\ngini = 0.246\nsamples = 446\nvalue = [382, 64]"] ;
734 -> 735 ;
736 [label="X[0] <= 50.5\ngini = 0.239\nsamples = 439\nvalue = [378, 61]"] ;
735 -> 736 ;
737 [label="X[4] <= 3.5\ngini = 0.261\nsamples = 350\nvalue = [296, 54]"] ;
736 -> 737 ;
738 [label="X[0] <= 49.5\ngini = 0.169\nsamples = 75\nvalue = [68, 7]"] ;
737 -> 738 ;
739 [label="X[0] <= 32.5\ngini = 0.151\nsamples = 73\nvalue = [67, 6]"] ;
738 -> 739 ;
740 [label="gini = 0.0\nsamples = 19\nvalue = [19, 0]"] ;
739 -> 740 ;
741 [label="X[1] <= 7.5\ngini = 0.198\nsamples = 54\nvalue = [48, 6]"] ;
739 -> 741 ;
742 [label="X[6] <= 33.0\ngini = 0.091\nsamples = 21\nvalue = [20, 1]"] ;
741 -> 742 ;
743 [label="X[6] <= 27.5\ngini = 0.375\nsamples = 4\nvalue = [3, 1]"] ;
742 -> 743 ;
744 [label="gini = 0.0\nsamples = 3\nvalue = [3, 0]"] ;
743 -> 744 ;
745 [label="gini = 0.0\nsamples = 1\nvalue = [0, 1]"] ;
743 -> 745 ;
746 [label="gini = 0.0\nsamples = 17\nvalue = [17, 0]"] ;
742 -> 746 ;
747 [label="X[4] <= 1.5\ngini = 0.257\nsamples = 33\nvalue = [28, 5]"] ;
741 -> 747 ;
748 [label="gini = 0.0\nsamples = 8\nvalue = [8, 0]"] ;
747 -> 748 ;
749 [label="X[0] <= 47.5\ngini = 0.32\nsamples = 25\nvalue = [20, 5]"] ;
747 -> 749 ;
750 [label="X[0] <= 41.5\ngini = 0.34\nsamples = 23\nvalue = [18, 5]"] ;
749 -> 750 ;
751 [label="X[0] <= 37.5\ngini = 0.291\nsamples = 17\nvalue = [14, 3]"] ;
750 -> 751 ;
752 [label="X[0] <= 33.5\ngini = 0.337\nsamples = 14\nvalue = [11, 3]"] ;
751 -> 752 ;
753 [label="gini = 0.444\nsamples = 3\nvalue = [2, 1]"] ;
752 -> 753 ;
754 [label="X[0] <= 35.5\ngini = 0.298\nsamples = 11\nvalue = [9, 2]"] ;
752 -> 754 ;
755 [label="gini = 0.0\nsamples = 3\nvalue = [3, 0]"] ;
754 -> 755 ;
756 [label="X[2] <= 2050.5\ngini = 0.375\nsamples = 8\nvalue = [6, 2]"] ;
754 -> 756 ;
757 [label="X[0] <= 36.5\ngini = 0.408\nsamples = 7\nvalue = [5, 2]"] ;
756 -> 757 ;
758 [label="gini = 0.375\nsamples = 4\nvalue = [3, 1]"] ;
757 -> 758 ;
759 [label="gini = 0.444\nsamples = 3\nvalue = [2, 1]"] ;
757 -> 759 ;
760 [label="gini = 0.0\nsamples = 1\nvalue = [1, 0]"] ;
756 -> 760 ;
761 [label="gini = 0.0\nsamples = 3\nvalue = [3, 0]"] ;
751 -> 761 ;
762 [label="X[3] <= 312.5\ngini = 0.444\nsamples = 6\nvalue = [4, 2]"] ;
750 -> 762 ;
763 [label="X[0] <= 43.5\ngini = 0.48\nsamples = 5\nvalue = [3, 2]"] ;
762 -> 763 ;
764 [label="gini = 0.5\nsamples = 2\nvalue = [1, 1]"] ;
763 -> 764 ;
765 [label="X[0] <= 45.5\ngini = 0.444\nsamples = 3\nvalue = [2, 1]"] ;
763 -> 765 ;
766 [label="gini = 0.0\nsamples = 1\nvalue = [1, 0]"] ;
765 -> 766 ;
767 [label="gini = 0.5\nsamples = 2\nvalue = [1, 1]"] ;
765 -> 767 ;
768 [label="gini = 0.0\nsamples = 1\nvalue = [1, 0]"] ;
762 -> 768 ;
769 [label="gini = 0.0\nsamples = 2\nvalue = [2, 0]"] ;
749 -> 769 ;
770 [label="X[1] <= 7.5\ngini = 0.5\nsamples = 2\nvalue = [1, 1]"] ;
738 -> 770 ;
771 [label="gini = 0.0\nsamples = 1\nvalue = [0, 1]"] ;
770 -> 771 ;
772 [label="gini = 0.0\nsamples = 1\nvalue = [1, 0]"] ;
770 -> 772 ;
773 [label="X[6] <= 32.5\ngini = 0.283\nsamples = 275\nvalue = [228, 47]"] ;
737 -> 773 ;
774 [label="X[0] <= 30.5\ngini = 0.105\nsamples = 18\nvalue = [17, 1]"] ;
773 -> 774 ;
775 [label="X[6] <= 6.5\ngini = 0.5\nsamples = 2\nvalue = [1, 1]"] ;
774 -> 775 ;
776 [label="gini = 0.0\nsamples = 1\nvalue = [0, 1]"] ;
775 -> 776 ;
777 [label="gini = 0.0\nsamples = 1\nvalue = [1, 0]"] ;
775 -> 777 ;
778 [label="gini = 0.0\nsamples = 16\nvalue = [16, 0]"] ;
774 -> 778 ;
779 [label="X[6] <= 38.0\ngini = 0.294\nsamples = 257\nvalue = [211, 46]"] ;
773 -> 779 ;
780 [label="gini = 0.0\nsamples = 2\nvalue = [0, 2]"] ;
779 -> 780 ;
781 [label="X[0] <= 34.5\ngini = 0.286\nsamples = 255\nvalue = [211, 44]"] ;
779 -> 781 ;
782 [label="X[2] <= 1551.5\ngini = 0.193\nsamples = 74\nvalue = [66, 8]"] ;
781 -> 782 ;
783 [label="X[3] <= 440.0\ngini = 0.176\nsamples = 72\nvalue = [65, 7]"] ;
782 -> 783 ;
784 [label="X[0] <= 32.5\ngini = 0.185\nsamples = 68\nvalue = [61, 7]"] ;
783 -> 784 ;
785 [label="X[1] <= 7.5\ngini = 0.206\nsamples = 43\nvalue = [38, 5]"] ;
784 -> 785 ;
786 [label="X[0] <= 30.5\ngini = 0.111\nsamples = 17\nvalue = [16, 1]"] ;
785 -> 786 ;
787 [label="gini = 0.0\nsamples = 7\nvalue = [7, 0]"] ;
786 -> 787 ;
788 [label="X[0] <= 31.5\ngini = 0.18\nsamples = 10\nvalue = [9, 1]"] ;
786 -> 788 ;
789 [label="gini = 0.278\nsamples = 6\nvalue = [5, 1]"] ;
788 -> 789 ;
790 [label="gini = 0.0\nsamples = 4\nvalue = [4, 0]"] ;
788 -> 790 ;
791 [label="X[0] <= 31.5\ngini = 0.26\nsamples = 26\nvalue = [22, 4]"] ;
785 -> 791 ;
792 [label="X[0] <= 30.5\ngini = 0.198\nsamples = 18\nvalue = [16, 2]"] ;
791 -> 792 ;
793 [label="gini = 0.278\nsamples = 12\nvalue = [10, 2]"] ;
792 -> 793 ;
794 [label="gini = 0.0\nsamples = 6\nvalue = [6, 0]"] ;
792 -> 794 ;
795 [label="gini = 0.375\nsamples = 8\nvalue = [6, 2]"] ;
791 -> 795 ;
796 [label="X[1] <= 7.5\ngini = 0.147\nsamples = 25\nvalue = [23, 2]"] ;
784 -> 796 ;
797 [label="X[0] <= 33.5\ngini = 0.245\nsamples = 14\nvalue = [12, 2]"] ;
796 -> 797 ;
798 [label="gini = 0.0\nsamples = 6\nvalue = [6, 0]"] ;
797 -> 798 ;
799 [label="gini = 0.375\nsamples = 8\nvalue = [6, 2]"] ;
797 -> 799 ;
800 [label="gini = 0.0\nsamples = 11\nvalue = [11, 0]"] ;
796 -> 800 ;
801 [label="gini = 0.0\nsamples = 4\nvalue = [4, 0]"] ;
783 -> 801 ;
802 [label="X[1] <= 7.5\ngini = 0.5\nsamples = 2\nvalue = [1, 1]"] ;
782 -> 802 ;
803 [label="gini = 0.0\nsamples = 1\nvalue = [1, 0]"] ;
802 -> 803 ;
804 [label="gini = 0.0\nsamples = 1\nvalue = [0, 1]"] ;
802 -> 804 ;
805 [label="X[0] <= 35.5\ngini = 0.319\nsamples = 181\nvalue = [145, 36]"] ;
781 -> 805 ;
806 [label="X[1] <= 7.5\ngini = 0.459\nsamples = 14\nvalue = [9, 5]"] ;
805 -> 806 ;
807 [label="gini = 0.32\nsamples = 5\nvalue = [4, 1]"] ;
806 -> 807 ;
808 [label="gini = 0.494\nsamples = 9\nvalue = [5, 4]"] ;
806 -> 808 ;
809 [label="X[2] <= 1177.0\ngini = 0.302\nsamples = 167\nvalue = [136, 31]"] ;
805 -> 809 ;
810 [label="X[0] <= 46.5\ngini = 0.311\nsamples = 161\nvalue = [130, 31]"] ;
809 -> 810 ;
811 [label="X[0] <= 41.5\ngini = 0.293\nsamples = 140\nvalue = [115, 25]"] ;
810 -> 811 ;
812 [label="X[1] <= 7.5\ngini = 0.348\nsamples = 89\nvalue = [69, 20]"] ;
811 -> 812 ;
813 [label="X[0] <= 40.5\ngini = 0.408\nsamples = 42\nvalue = [30, 12]"] ;
812 -> 813 ;
814 [label="X[0] <= 38.5\ngini = 0.393\nsamples = 41\nvalue = [30, 11]"] ;
813 -> 814 ;
815 [label="X[0] <= 37.5\ngini = 0.34\nsamples = 23\nvalue = [18, 5]"] ;
814 -> 815 ;
816 [label="X[0] <= 36.5\ngini = 0.388\nsamples = 19\nvalue = [14, 5]"] ;
815 -> 816 ;
817 [label="gini = 0.375\nsamples = 12\nvalue = [9, 3]"] ;
816 -> 817 ;
818 [label="gini = 0.408\nsamples = 7\nvalue = [5, 2]"] ;
816 -> 818 ;
819 [label="gini = 0.0\nsamples = 4\nvalue = [4, 0]"] ;
815 -> 819 ;
820 [label="X[3] <= 690.0\ngini = 0.444\nsamples = 18\nvalue = [12, 6]"] ;
814 -> 820 ;
821 [label="X[0] <= 39.5\ngini = 0.457\nsamples = 17\nvalue = [11, 6]"] ;
820 -> 821 ;
822 [label="gini = 0.494\nsamples = 9\nvalue = [5, 4]"] ;
821 -> 822 ;
823 [label="gini = 0.375\nsamples = 8\nvalue = [6, 2]"] ;
821 -> 823 ;
824 [label="gini = 0.0\nsamples = 1\nvalue = [1, 0]"] ;
820 -> 824 ;
825 [label="gini = 0.0\nsamples = 1\nvalue = [0, 1]"] ;
813 -> 825 ;
826 [label="X[0] <= 36.5\ngini = 0.282\nsamples = 47\nvalue = [39, 8]"] ;
812 -> 826 ;
827 [label="gini = 0.408\nsamples = 7\nvalue = [5, 2]"] ;
826 -> 827 ;
828 [label="X[0] <= 37.5\ngini = 0.255\nsamples = 40\nvalue = [34, 6]"] ;
826 -> 828 ;
829 [label="gini = 0.165\nsamples = 11\nvalue = [10, 1]"] ;
828 -> 829 ;
830 [label="X[0] <= 39.5\ngini = 0.285\nsamples = 29\nvalue = [24, 5]"] ;
828 -> 830 ;
831 [label="X[0] <= 38.5\ngini = 0.32\nsamples = 15\nvalue = [12, 3]"] ;
830 -> 831 ;
832 [label="gini = 0.278\nsamples = 12\nvalue = [10, 2]"] ;
831 -> 832 ;
833 [label="gini = 0.444\nsamples = 3\nvalue = [2, 1]"] ;
831 -> 833 ;
834 [label="X[0] <= 40.5\ngini = 0.245\nsamples = 14\nvalue = [12, 2]"] ;
830 -> 834 ;
835 [label="gini = 0.219\nsamples = 8\nvalue = [7, 1]"] ;
834 -> 835 ;
836 [label="gini = 0.278\nsamples = 6\nvalue = [5, 1]"] ;
834 -> 836 ;
837 [label="X[0] <= 45.5\ngini = 0.177\nsamples = 51\nvalue = [46, 5]"] ;
811 -> 837 ;
838 [label="X[0] <= 42.5\ngini = 0.219\nsamples = 40\nvalue = [35, 5]"] ;
837 -> 838 ;
839 [label="X[1] <= 7.5\ngini = 0.111\nsamples = 17\nvalue = [16, 1]"] ;
838 -> 839 ;
840 [label="gini = 0.198\nsamples = 9\nvalue = [8, 1]"] ;
839 -> 840 ;
841 [label="gini = 0.0\nsamples = 8\nvalue = [8, 0]"] ;
839 -> 841 ;
842 [label="X[0] <= 43.5\ngini = 0.287\nsamples = 23\nvalue = [19, 4]"] ;
838 -> 842 ;
843 [label="X[1] <= 7.5\ngini = 0.245\nsamples = 7\nvalue = [6, 1]"] ;
842 -> 843 ;
844 [label="gini = 0.0\nsamples = 2\nvalue = [2, 0]"] ;
843 -> 844 ;
845 [label="gini = 0.32\nsamples = 5\nvalue = [4, 1]"] ;
843 -> 845 ;
846 [label="X[1] <= 7.5\ngini = 0.305\nsamples = 16\nvalue = [13, 3]"] ;
842 -> 846 ;
847 [label="X[0] <= 44.5\ngini = 0.375\nsamples = 4\nvalue = [3, 1]"] ;
846 -> 847 ;
848 [label="gini = 0.444\nsamples = 3\nvalue = [2, 1]"] ;
847 -> 848 ;
849 [label="gini = 0.0\nsamples = 1\nvalue = [1, 0]"] ;
847 -> 849 ;
850 [label="X[0] <= 44.5\ngini = 0.278\nsamples = 12\nvalue = [10, 2]"] ;
846 -> 850 ;
851 [label="gini = 0.0\nsamples = 1\nvalue = [1, 0]"] ;
850 -> 851 ;
852 [label="gini = 0.298\nsamples = 11\nvalue = [9, 2]"] ;
850 -> 852 ;
853 [label="gini = 0.0\nsamples = 11\nvalue = [11, 0]"] ;
837 -> 853 ;
854 [label="X[0] <= 48.5\ngini = 0.408\nsamples = 21\nvalue = [15, 6]"] ;
810 -> 854 ;
855 [label="X[0] <= 47.5\ngini = 0.486\nsamples = 12\nvalue = [7, 5]"] ;
854 -> 855 ;
856 [label="X[1] <= 7.5\ngini = 0.444\nsamples = 6\nvalue = [4, 2]"] ;
855 -> 856 ;
857 [label="gini = 0.444\nsamples = 3\nvalue = [2, 1]"] ;
856 -> 857 ;
858 [label="gini = 0.444\nsamples = 3\nvalue = [2, 1]"] ;
856 -> 858 ;
859 [label="X[1] <= 7.5\ngini = 0.5\nsamples = 6\nvalue = [3, 3]"] ;
855 -> 859 ;
860 [label="gini = 0.444\nsamples = 3\nvalue = [2, 1]"] ;
859 -> 860 ;
861 [label="gini = 0.444\nsamples = 3\nvalue = [1, 2]"] ;
859 -> 861 ;
862 [label="X[0] <= 49.5\ngini = 0.198\nsamples = 9\nvalue = [8, 1]"] ;
854 -> 862 ;
863 [label="gini = 0.0\nsamples = 5\nvalue = [5, 0]"] ;
862 -> 863 ;
864 [label="X[1] <= 7.5\ngini = 0.375\nsamples = 4\nvalue = [3, 1]"] ;
862 -> 864 ;
865 [label="gini = 0.0\nsamples = 2\nvalue = [2, 0]"] ;
864 -> 865 ;
866 [label="gini = 0.5\nsamples = 2\nvalue = [1, 1]"] ;
864 -> 866 ;
867 [label="gini = 0.0\nsamples = 6\nvalue = [6, 0]"] ;
809 -> 867 ;
868 [label="X[4] <= 1.5\ngini = 0.145\nsamples = 89\nvalue = [82, 7]"] ;
736 -> 868 ;
869 [label="X[0] <= 57.5\ngini = 0.444\nsamples = 3\nvalue = [2, 1]"] ;
868 -> 869 ;
870 [label="gini = 0.0\nsamples = 2\nvalue = [2, 0]"] ;
869 -> 870 ;
871 [label="gini = 0.0\nsamples = 1\nvalue = [0, 1]"] ;
869 -> 871 ;
872 [label="X[6] <= 16.5\ngini = 0.13\nsamples = 86\nvalue = [80, 6]"] ;
868 -> 872 ;
873 [label="X[0] <= 64.5\ngini = 0.375\nsamples = 4\nvalue = [3, 1]"] ;
872 -> 873 ;
874 [label="gini = 0.0\nsamples = 1\nvalue = [0, 1]"] ;
873 -> 874 ;
875 [label="gini = 0.0\nsamples = 3\nvalue = [3, 0]"] ;
873 -> 875 ;
876 [label="X[0] <= 78.5\ngini = 0.115\nsamples = 82\nvalue = [77, 5]"] ;
872 -> 876 ;
877 [label="X[0] <= 65.5\ngini = 0.096\nsamples = 79\nvalue = [75, 4]"] ;
876 -> 877 ;
878 [label="X[0] <= 64.0\ngini = 0.131\nsamples = 57\nvalue = [53, 4]"] ;
877 -> 878 ;
879 [label="X[0] <= 58.5\ngini = 0.105\nsamples = 54\nvalue = [51, 3]"] ;
878 -> 879 ;
880 [label="X[1] <= 7.5\ngini = 0.054\nsamples = 36\nvalue = [35, 1]"] ;
879 -> 880 ;
881 [label="gini = 0.0\nsamples = 20\nvalue = [20, 0]"] ;
880 -> 881 ;
882 [label="X[0] <= 52.5\ngini = 0.117\nsamples = 16\nvalue = [15, 1]"] ;
880 -> 882 ;
883 [label="X[0] <= 51.5\ngini = 0.219\nsamples = 8\nvalue = [7, 1]"] ;
882 -> 883 ;
884 [label="gini = 0.0\nsamples = 4\nvalue = [4, 0]"] ;
883 -> 884 ;
885 [label="X[4] <= 3.0\ngini = 0.375\nsamples = 4\nvalue = [3, 1]"] ;
883 -> 885 ;
886 [label="gini = 0.0\nsamples = 1\nvalue = [1, 0]"] ;
885 -> 886 ;
887 [label="gini = 0.444\nsamples = 3\nvalue = [2, 1]"] ;
885 -> 887 ;
888 [label="gini = 0.0\nsamples = 8\nvalue = [8, 0]"] ;
882 -> 888 ;
889 [label="X[4] <= 3.0\ngini = 0.198\nsamples = 18\nvalue = [16, 2]"] ;
879 -> 889 ;
890 [label="gini = 0.0\nsamples = 4\nvalue = [4, 0]"] ;
889 -> 890 ;
891 [label="X[0] <= 61.5\ngini = 0.245\nsamples = 14\nvalue = [12, 2]"] ;
889 -> 891 ;
892 [label="X[0] <= 59.5\ngini = 0.18\nsamples = 10\nvalue = [9, 1]"] ;
891 -> 892 ;
893 [label="X[1] <= 7.5\ngini = 0.32\nsamples = 5\nvalue = [4, 1]"] ;
892 -> 893 ;
894 [label="gini = 0.444\nsamples = 3\nvalue = [2, 1]"] ;
893 -> 894 ;
895 [label="gini = 0.0\nsamples = 2\nvalue = [2, 0]"] ;
893 -> 895 ;
896 [label="gini = 0.0\nsamples = 5\nvalue = [5, 0]"] ;
892 -> 896 ;
897 [label="X[1] <= 7.5\ngini = 0.375\nsamples = 4\nvalue = [3, 1]"] ;
891 -> 897 ;
898 [label="gini = 0.0\nsamples = 2\nvalue = [2, 0]"] ;
897 -> 898 ;
899 [label="X[0] <= 62.5\ngini = 0.5\nsamples = 2\nvalue = [1, 1]"] ;
897 -> 899 ;
900 [label="gini = 0.0\nsamples = 1\nvalue = [0, 1]"] ;
899 -> 900 ;
901 [label="gini = 0.0\nsamples = 1\nvalue = [1, 0]"] ;
899 -> 901 ;
902 [label="gini = 0.444\nsamples = 3\nvalue = [2, 1]"] ;
878 -> 902 ;
903 [label="gini = 0.0\nsamples = 22\nvalue = [22, 0]"] ;
877 -> 903 ;
904 [label="X[0] <= 80.5\ngini = 0.444\nsamples = 3\nvalue = [2, 1]"] ;
876 -> 904 ;
905 [label="gini = 0.0\nsamples = 1\nvalue = [0, 1]"] ;
904 -> 905 ;
906 [label="gini = 0.0\nsamples = 2\nvalue = [2, 0]"] ;
904 -> 906 ;
907 [label="X[3] <= 1596.0\ngini = 0.49\nsamples = 7\nvalue = [4, 3]"] ;
735 -> 907 ;
908 [label="gini = 0.0\nsamples = 3\nvalue = [0, 3]"] ;
907 -> 908 ;
909 [label="gini = 0.0\nsamples = 4\nvalue = [4, 0]"] ;
907 -> 909 ;
910 [label="X[2] <= 4668.5\ngini = 0.371\nsamples = 736\nvalue = [555, 181]"] ;
734 -> 910 ;
911 [label="X[0] <= 60.5\ngini = 0.365\nsamples = 728\nvalue = [553, 175]"] ;
910 -> 911 ;
912 [label="X[1] <= 9.5\ngini = 0.378\nsamples = 680\nvalue = [508, 172]"] ;
911 -> 912 ;
913 [label="X[0] <= 58.5\ngini = 0.366\nsamples = 638\nvalue = [484, 154]"] ;
912 -> 913 ;
914 [label="X[6] <= 29.0\ngini = 0.361\nsamples = 627\nvalue = [479, 148]"] ;
913 -> 914 ;
915 [label="X[0] <= 41.5\ngini = 0.194\nsamples = 55\nvalue = [49, 6]"] ;
914 -> 915 ;
916 [label="X[0] <= 35.5\ngini = 0.312\nsamples = 31\nvalue = [25, 6]"] ;
915 -> 916 ;
917 [label="X[6] <= 1.0\ngini = 0.105\nsamples = 18\nvalue = [17, 1]"] ;
916 -> 917 ;
918 [label="X[4] <= 3.0\ngini = 0.32\nsamples = 5\nvalue = [4, 1]"] ;
917 -> 918 ;
919 [label="gini = 0.0\nsamples = 2\nvalue = [2, 0]"] ;
918 -> 919 ;
920 [label="X[0] <= 33.5\ngini = 0.444\nsamples = 3\nvalue = [2, 1]"] ;
918 -> 920 ;
921 [label="gini = 0.5\nsamples = 2\nvalue = [1, 1]"] ;
920 -> 921 ;
922 [label="gini = 0.0\nsamples = 1\nvalue = [1, 0]"] ;
920 -> 922 ;
923 [label="gini = 0.0\nsamples = 13\nvalue = [13, 0]"] ;
917 -> 923 ;
924 [label="X[6] <= 4.5\ngini = 0.473\nsamples = 13\nvalue = [8, 5]"] ;
916 -> 924 ;
925 [label="gini = 0.0\nsamples = 5\nvalue = [5, 0]"] ;
924 -> 925 ;
926 [label="X[4] <= 1.5\ngini = 0.469\nsamples = 8\nvalue = [3, 5]"] ;
924 -> 926 ;
927 [label="gini = 0.0\nsamples = 1\nvalue = [1, 0]"] ;
926 -> 927 ;
928 [label="X[0] <= 38.5\ngini = 0.408\nsamples = 7\nvalue = [2, 5]"] ;
926 -> 928 ;
929 [label="X[0] <= 37.0\ngini = 0.5\nsamples = 4\nvalue = [2, 2]"] ;
928 -> 929 ;
930 [label="X[6] <= 13.5\ngini = 0.444\nsamples = 3\nvalue = [1, 2]"] ;
929 -> 930 ;
931 [label="gini = 0.0\nsamples = 1\nvalue = [0, 1]"] ;
930 -> 931 ;
932 [label="X[6] <= 18.0\ngini = 0.5\nsamples = 2\nvalue = [1, 1]"] ;
930 -> 932 ;
933 [label="gini = 0.0\nsamples = 1\nvalue = [1, 0]"] ;
932 -> 933 ;
934 [label="gini = 0.0\nsamples = 1\nvalue = [0, 1]"] ;
932 -> 934 ;
935 [label="gini = 0.0\nsamples = 1\nvalue = [1, 0]"] ;
929 -> 935 ;
936 [label="gini = 0.0\nsamples = 3\nvalue = [0, 3]"] ;
928 -> 936 ;
937 [label="gini = 0.0\nsamples = 24\nvalue = [24, 0]"] ;
915 -> 937 ;
938 [label="X[2] <= 575.5\ngini = 0.373\nsamples = 572\nvalue = [430, 142]"] ;
914 -> 938 ;
939 [label="X[3] <= 1748.0\ngini = 0.379\nsamples = 560\nvalue = [418, 142]"] ;
938 -> 939 ;
940 [label="X[4] <= 0.5\ngini = 0.377\nsamples = 559\nvalue = [418, 141]"] ;
939 -> 940 ;
941 [label="X[0] <= 37.5\ngini = 0.444\nsamples = 3\nvalue = [1, 2]"] ;
940 -> 941 ;
942 [label="gini = 0.0\nsamples = 1\nvalue = [1, 0]"] ;
941 -> 942 ;
943 [label="gini = 0.0\nsamples = 2\nvalue = [0, 2]"] ;
941 -> 943 ;
944 [label="X[6] <= 36.5\ngini = 0.375\nsamples = 556\nvalue = [417, 139]"] ;
940 -> 944 ;
945 [label="X[0] <= 48.5\ngini = 0.464\nsamples = 30\nvalue = [19, 11]"] ;
944 -> 945 ;
946 [label="X[0] <= 38.5\ngini = 0.488\nsamples = 26\nvalue = [15, 11]"] ;
945 -> 946 ;
947 [label="X[0] <= 31.5\ngini = 0.375\nsamples = 12\nvalue = [9, 3]"] ;
946 -> 947 ;
948 [label="X[4] <= 3.5\ngini = 0.48\nsamples = 5\nvalue = [3, 2]"] ;
947 -> 948 ;
949 [label="X[4] <= 2.0\ngini = 0.5\nsamples = 4\nvalue = [2, 2]"] ;
948 -> 949 ;
950 [label="X[6] <= 33.0\ngini = 0.444\nsamples = 3\nvalue = [2, 1]"] ;
949 -> 950 ;
951 [label="gini = 0.5\nsamples = 2\nvalue = [1, 1]"] ;
950 -> 951 ;
952 [label="gini = 0.0\nsamples = 1\nvalue = [1, 0]"] ;
950 -> 952 ;
953 [label="gini = 0.0\nsamples = 1\nvalue = [0, 1]"] ;
949 -> 953 ;
954 [label="gini = 0.0\nsamples = 1\nvalue = [1, 0]"] ;
948 -> 954 ;
955 [label="X[0] <= 34.5\ngini = 0.245\nsamples = 7\nvalue = [6, 1]"] ;
947 -> 955 ;
956 [label="gini = 0.0\nsamples = 2\nvalue = [2, 0]"] ;
955 -> 956 ;
957 [label="X[0] <= 36.0\ngini = 0.32\nsamples = 5\nvalue = [4, 1]"] ;
955 -> 957 ;
958 [label="X[6] <= 30.5\ngini = 0.444\nsamples = 3\nvalue = [2, 1]"] ;
957 -> 958 ;
959 [label="gini = 0.5\nsamples = 2\nvalue = [1, 1]"] ;
958 -> 959 ;
960 [label="gini = 0.0\nsamples = 1\nvalue = [1, 0]"] ;
958 -> 960 ;
961 [label="gini = 0.0\nsamples = 2\nvalue = [2, 0]"] ;
957 -> 961 ;
962 [label="X[0] <= 44.5\ngini = 0.49\nsamples = 14\nvalue = [6, 8]"] ;
946 -> 962 ;
963 [label="X[6] <= 32.0\ngini = 0.375\nsamples = 8\nvalue = [2, 6]"] ;
962 -> 963 ;
964 [label="X[0] <= 40.0\ngini = 0.278\nsamples = 6\nvalue = [1, 5]"] ;
963 -> 964 ;
965 [label="X[4] <= 2.5\ngini = 0.375\nsamples = 4\nvalue = [1, 3]"] ;
964 -> 965 ;
966 [label="gini = 0.5\nsamples = 2\nvalue = [1, 1]"] ;
965 -> 966 ;
967 [label="gini = 0.0\nsamples = 2\nvalue = [0, 2]"] ;
965 -> 967 ;
968 [label="gini = 0.0\nsamples = 2\nvalue = [0, 2]"] ;
964 -> 968 ;
969 [label="X[6] <= 34.5\ngini = 0.5\nsamples = 2\nvalue = [1, 1]"] ;
963 -> 969 ;
970 [label="gini = 0.0\nsamples = 1\nvalue = [1, 0]"] ;
969 -> 970 ;
971 [label="gini = 0.0\nsamples = 1\nvalue = [0, 1]"] ;
969 -> 971 ;
972 [label="X[6] <= 34.0\ngini = 0.444\nsamples = 6\nvalue = [4, 2]"] ;
962 -> 972 ;
973 [label="X[0] <= 47.0\ngini = 0.32\nsamples = 5\nvalue = [4, 1]"] ;
972 -> 973 ;
974 [label="gini = 0.0\nsamples = 2\nvalue = [2, 0]"] ;
973 -> 974 ;
975 [label="gini = 0.444\nsamples = 3\nvalue = [2, 1]"] ;
973 -> 975 ;
976 [label="gini = 0.0\nsamples = 1\nvalue = [0, 1]"] ;
972 -> 976 ;
977 [label="gini = 0.0\nsamples = 4\nvalue = [4, 0]"] ;
945 -> 977 ;
978 [label="X[3] <= 1577.0\ngini = 0.368\nsamples = 526\nvalue = [398, 128]"] ;
944 -> 978 ;
979 [label="X[3] <= 1486.0\ngini = 0.371\nsamples = 521\nvalue = [393, 128]"] ;
978 -> 979 ;
980 [label="X[3] <= 106.5\ngini = 0.366\nsamples = 518\nvalue = [393, 125]"] ;
979 -> 980 ;
981 [label="X[0] <= 31.5\ngini = 0.37\nsamples = 511\nvalue = [386, 125]"] ;
980 -> 981 ;
982 [label="X[0] <= 30.5\ngini = 0.301\nsamples = 65\nvalue = [53, 12]"] ;
981 -> 982 ;
983 [label="X[4] <= 1.5\ngini = 0.342\nsamples = 32\nvalue = [25, 7]"] ;
982 -> 983 ;
984 [label="gini = 0.0\nsamples = 1\nvalue = [1, 0]"] ;
983 -> 984 ;
985 [label="X[4] <= 3.0\ngini = 0.35\nsamples = 31\nvalue = [24, 7]"] ;
983 -> 985 ;
986 [label="gini = 0.5\nsamples = 2\nvalue = [1, 1]"] ;
985 -> 986 ;
987 [label="gini = 0.328\nsamples = 29\nvalue = [23, 6]"] ;
985 -> 987 ;
988 [label="X[4] <= 3.0\ngini = 0.257\nsamples = 33\nvalue = [28, 5]"] ;
982 -> 988 ;
989 [label="gini = 0.0\nsamples = 4\nvalue = [4, 0]"] ;
988 -> 989 ;
990 [label="gini = 0.285\nsamples = 29\nvalue = [24, 5]"] ;
988 -> 990 ;
991 [label="X[6] <= 38.0\ngini = 0.378\nsamples = 446\nvalue = [333, 113]"] ;
981 -> 991 ;
992 [label="gini = 0.0\nsamples = 3\nvalue = [3, 0]"] ;
991 -> 992 ;
993 [label="X[0] <= 37.5\ngini = 0.38\nsamples = 443\nvalue = [330, 113]"] ;
991 -> 993 ;
994 [label="X[4] <= 3.0\ngini = 0.359\nsamples = 158\nvalue = [121, 37]"] ;
993 -> 994 ;
995 [label="X[0] <= 35.5\ngini = 0.188\nsamples = 19\nvalue = [17, 2]"] ;
994 -> 995 ;
996 [label="gini = 0.0\nsamples = 9\nvalue = [9, 0]"] ;
995 -> 996 ;
997 [label="X[4] <= 1.5\ngini = 0.32\nsamples = 10\nvalue = [8, 2]"] ;
995 -> 997 ;
998 [label="X[0] <= 36.5\ngini = 0.5\nsamples = 2\nvalue = [1, 1]"] ;
997 -> 998 ;
999 [label="gini = 0.0\nsamples = 1\nvalue = [1, 0]"] ;
998 -> 999 ;
1000 [label="gini = 0.0\nsamples = 1\nvalue = [0, 1]"] ;
998 -> 1000 ;
1001 [label="X[0] <= 36.5\ngini = 0.219\nsamples = 8\nvalue = [7, 1]"] ;
997 -> 1001 ;
1002 [label="gini = 0.32\nsamples = 5\nvalue = [4, 1]"] ;
1001 -> 1002 ;
1003 [label="gini = 0.0\nsamples = 3\nvalue = [3, 0]"] ;
1001 -> 1003 ;
1004 [label="X[0] <= 34.5\ngini = 0.377\nsamples = 139\nvalue = [104, 35]"] ;
994 -> 1004 ;
1005 [label="X[0] <= 32.5\ngini = 0.401\nsamples = 72\nvalue = [52, 20]"] ;
1004 -> 1005 ;
1006 [label="gini = 0.423\nsamples = 23\nvalue = [16, 7]"] ;
1005 -> 1006 ;
1007 [label="X[0] <= 33.5\ngini = 0.39\nsamples = 49\nvalue = [36, 13]"] ;
1005 -> 1007 ;
1008 [label="gini = 0.351\nsamples = 22\nvalue = [17, 5]"] ;
1007 -> 1008 ;
1009 [label="gini = 0.417\nsamples = 27\nvalue = [19, 8]"] ;
1007 -> 1009 ;
1010 [label="X[0] <= 36.5\ngini = 0.348\nsamples = 67\nvalue = [52, 15]"] ;
1004 -> 1010 ;
1011 [label="X[0] <= 35.5\ngini = 0.36\nsamples = 51\nvalue = [39, 12]"] ;
1010 -> 1011 ;
1012 [label="gini = 0.365\nsamples = 25\nvalue = [19, 6]"] ;
1011 -> 1012 ;
1013 [label="gini = 0.355\nsamples = 26\nvalue = [20, 6]"] ;
1011 -> 1013 ;
1014 [label="gini = 0.305\nsamples = 16\nvalue = [13, 3]"] ;
1010 -> 1014 ;
1015 [label="X[0] <= 43.5\ngini = 0.391\nsamples = 285\nvalue = [209, 76]"] ;
993 -> 1015 ;
1016 [label="X[4] <= 3.0\ngini = 0.425\nsamples = 124\nvalue = [86, 38]"] ;
1015 -> 1016 ;
1017 [label="X[0] <= 42.5\ngini = 0.48\nsamples = 10\nvalue = [4, 6]"] ;
1016 -> 1017 ;
1018 [label="X[0] <= 38.5\ngini = 0.49\nsamples = 7\nvalue = [4, 3]"] ;
1017 -> 1018 ;
1019 [label="gini = 0.0\nsamples = 1\nvalue = [0, 1]"] ;
1018 -> 1019 ;
1020 [label="X[0] <= 40.0\ngini = 0.444\nsamples = 6\nvalue = [4, 2]"] ;
1018 -> 1020 ;
1021 [label="gini = 0.0\nsamples = 1\nvalue = [1, 0]"] ;
1020 -> 1021 ;
1022 [label="X[0] <= 41.5\ngini = 0.48\nsamples = 5\nvalue = [3, 2]"] ;
1020 -> 1022 ;
1023 [label="gini = 0.444\nsamples = 3\nvalue = [2, 1]"] ;
1022 -> 1023 ;
1024 [label="gini = 0.5\nsamples = 2\nvalue = [1, 1]"] ;
1022 -> 1024 ;
1025 [label="gini = 0.0\nsamples = 3\nvalue = [0, 3]"] ;
1017 -> 1025 ;
1026 [label="X[0] <= 42.5\ngini = 0.404\nsamples = 114\nvalue = [82, 32]"] ;
1016 -> 1026 ;
1027 [label="X[0] <= 40.5\ngini = 0.414\nsamples = 99\nvalue = [70, 29]"] ;
1026 -> 1027 ;
1028 [label="X[0] <= 39.5\ngini = 0.396\nsamples = 70\nvalue = [51, 19]"] ;
1027 -> 1028 ;
1029 [label="X[0] <= 38.5\ngini = 0.422\nsamples = 53\nvalue = [37, 16]"] ;
1028 -> 1029 ;
1030 [label="gini = 0.408\nsamples = 28\nvalue = [20, 8]"] ;
1029 -> 1030 ;
1031 [label="gini = 0.435\nsamples = 25\nvalue = [17, 8]"] ;
1029 -> 1031 ;
1032 [label="gini = 0.291\nsamples = 17\nvalue = [14, 3]"] ;
1028 -> 1032 ;
1033 [label="X[0] <= 41.5\ngini = 0.452\nsamples = 29\nvalue = [19, 10]"] ;
1027 -> 1033 ;
1034 [label="gini = 0.459\nsamples = 14\nvalue = [9, 5]"] ;
1033 -> 1034 ;
1035 [label="gini = 0.444\nsamples = 15\nvalue = [10, 5]"] ;
1033 -> 1035 ;
1036 [label="gini = 0.32\nsamples = 15\nvalue = [12, 3]"] ;
1026 -> 1036 ;
1037 [label="X[0] <= 46.5\ngini = 0.361\nsamples = 161\nvalue = [123, 38]"] ;
1015 -> 1037 ;
1038 [label="X[0] <= 45.5\ngini = 0.282\nsamples = 53\nvalue = [44, 9]"] ;
1037 -> 1038 ;
1039 [label="X[4] <= 1.5\ngini = 0.251\nsamples = 34\nvalue = [29, 5]"] ;
1038 -> 1039 ;
1040 [label="gini = 0.0\nsamples = 1\nvalue = [1, 0]"] ;
1039 -> 1040 ;
1041 [label="X[0] <= 44.5\ngini = 0.257\nsamples = 33\nvalue = [28, 5]"] ;
1039 -> 1041 ;
1042 [label="X[4] <= 3.0\ngini = 0.278\nsamples = 18\nvalue = [15, 3]"] ;
1041 -> 1042 ;
1043 [label="gini = 0.0\nsamples = 3\nvalue = [3, 0]"] ;
1042 -> 1043 ;
1044 [label="gini = 0.32\nsamples = 15\nvalue = [12, 3]"] ;
1042 -> 1044 ;
1045 [label="X[4] <= 3.0\ngini = 0.231\nsamples = 15\nvalue = [13, 2]"] ;
1041 -> 1045 ;
1046 [label="gini = 0.444\nsamples = 3\nvalue = [2, 1]"] ;
1045 -> 1046 ;
1047 [label="gini = 0.153\nsamples = 12\nvalue = [11, 1]"] ;
1045 -> 1047 ;
1048 [label="X[4] <= 3.0\ngini = 0.332\nsamples = 19\nvalue = [15, 4]"] ;
1038 -> 1048 ;
1049 [label="gini = 0.32\nsamples = 5\nvalue = [4, 1]"] ;
1048 -> 1049 ;
1050 [label="gini = 0.337\nsamples = 14\nvalue = [11, 3]"] ;
1048 -> 1050 ;
1051 [label="X[0] <= 47.5\ngini = 0.393\nsamples = 108\nvalue = [79, 29]"] ;
1037 -> 1051 ;
1052 [label="X[4] <= 3.0\ngini = 0.48\nsamples = 10\nvalue = [6, 4]"] ;
1051 -> 1052 ;
1053 [label="gini = 0.444\nsamples = 3\nvalue = [2, 1]"] ;
1052 -> 1053 ;
1054 [label="gini = 0.49\nsamples = 7\nvalue = [4, 3]"] ;
1052 -> 1054 ;
1055 [label="X[0] <= 49.5\ngini = 0.38\nsamples = 98\nvalue = [73, 25]"] ;
1051 -> 1055 ;
1056 [label="X[4] <= 3.0\ngini = 0.311\nsamples = 26\nvalue = [21, 5]"] ;
1055 -> 1056 ;
1057 [label="gini = 0.0\nsamples = 5\nvalue = [5, 0]"] ;
1056 -> 1057 ;
1058 [label="X[0] <= 48.5\ngini = 0.363\nsamples = 21\nvalue = [16, 5]"] ;
1056 -> 1058 ;
1059 [label="gini = 0.375\nsamples = 8\nvalue = [6, 2]"] ;
1058 -> 1059 ;
1060 [label="gini = 0.355\nsamples = 13\nvalue = [10, 3]"] ;
1058 -> 1060 ;
1061 [label="X[4] <= 1.5\ngini = 0.401\nsamples = 72\nvalue = [52, 20]"] ;
1055 -> 1061 ;
1062 [label="gini = 0.0\nsamples = 1\nvalue = [0, 1]"] ;
1061 -> 1062 ;
1063 [label="X[0] <= 55.5\ngini = 0.392\nsamples = 71\nvalue = [52, 19]"] ;
1061 -> 1063 ;
1064 [label="X[0] <= 53.5\ngini = 0.375\nsamples = 52\nvalue = [39, 13]"] ;
1063 -> 1064 ;
1065 [label="X[4] <= 3.5\ngini = 0.394\nsamples = 37\nvalue = [27, 10]"] ;
1064 -> 1065 ;
1066 [label="X[0] <= 52.5\ngini = 0.245\nsamples = 7\nvalue = [6, 1]"] ;
1065 -> 1066 ;
1067 [label="gini = 0.0\nsamples = 5\nvalue = [5, 0]"] ;
1066 -> 1067 ;
1068 [label="X[4] <= 2.5\ngini = 0.5\nsamples = 2\nvalue = [1, 1]"] ;
1066 -> 1068 ;
1069 [label="gini = 0.0\nsamples = 1\nvalue = [0, 1]"] ;
1068 -> 1069 ;
1070 [label="gini = 0.0\nsamples = 1\nvalue = [1, 0]"] ;
1068 -> 1070 ;
1071 [label="X[0] <= 52.5\ngini = 0.42\nsamples = 30\nvalue = [21, 9]"] ;
1065 -> 1071 ;
1072 [label="X[0] <= 51.5\ngini = 0.444\nsamples = 24\nvalue = [16, 8]"] ;
1071 -> 1072 ;
1073 [label="X[0] <= 50.5\ngini = 0.434\nsamples = 22\nvalue = [15, 7]"] ;
1072 -> 1073 ;
1074 [label="gini = 0.444\nsamples = 15\nvalue = [10, 5]"] ;
1073 -> 1074 ;
1075 [label="gini = 0.408\nsamples = 7\nvalue = [5, 2]"] ;
1073 -> 1075 ;
1076 [label="gini = 0.5\nsamples = 2\nvalue = [1, 1]"] ;
1072 -> 1076 ;
1077 [label="gini = 0.278\nsamples = 6\nvalue = [5, 1]"] ;
1071 -> 1077 ;
1078 [label="X[4] <= 3.0\ngini = 0.32\nsamples = 15\nvalue = [12, 3]"] ;
1064 -> 1078 ;
1079 [label="gini = 0.444\nsamples = 3\nvalue = [2, 1]"] ;
1078 -> 1079 ;
1080 [label="X[0] <= 54.5\ngini = 0.278\nsamples = 12\nvalue = [10, 2]"] ;
1078 -> 1080 ;
1081 [label="gini = 0.0\nsamples = 4\nvalue = [4, 0]"] ;
1080 -> 1081 ;
1082 [label="gini = 0.375\nsamples = 8\nvalue = [6, 2]"] ;
1080 -> 1082 ;
1083 [label="X[0] <= 57.5\ngini = 0.432\nsamples = 19\nvalue = [13, 6]"] ;
1063 -> 1083 ;
1084 [label="X[0] <= 56.5\ngini = 0.48\nsamples = 10\nvalue = [6, 4]"] ;
1083 -> 1084 ;
1085 [label="gini = 0.444\nsamples = 6\nvalue = [4, 2]"] ;
1084 -> 1085 ;
1086 [label="gini = 0.5\nsamples = 4\nvalue = [2, 2]"] ;
1084 -> 1086 ;
1087 [label="gini = 0.346\nsamples = 9\nvalue = [7, 2]"] ;
1083 -> 1087 ;
1088 [label="gini = 0.0\nsamples = 7\nvalue = [7, 0]"] ;
980 -> 1088 ;
1089 [label="gini = 0.0\nsamples = 3\nvalue = [0, 3]"] ;
979 -> 1089 ;
1090 [label="gini = 0.0\nsamples = 5\nvalue = [5, 0]"] ;
978 -> 1090 ;
1091 [label="gini = 0.0\nsamples = 1\nvalue = [0, 1]"] ;
939 -> 1091 ;
1092 [label="gini = 0.0\nsamples = 12\nvalue = [12, 0]"] ;
938 -> 1092 ;
1093 [label="X[4] <= 3.0\ngini = 0.496\nsamples = 11\nvalue = [5, 6]"] ;
913 -> 1093 ;
1094 [label="gini = 0.0\nsamples = 1\nvalue = [1, 0]"] ;
1093 -> 1094 ;
1095 [label="X[2] <= 1442.5\ngini = 0.48\nsamples = 10\nvalue = [4, 6]"] ;
1093 -> 1095 ;
1096 [label="X[6] <= 28.5\ngini = 0.444\nsamples = 9\nvalue = [3, 6]"] ;
1095 -> 1096 ;
1097 [label="gini = 0.0\nsamples = 1\nvalue = [0, 1]"] ;
1096 -> 1097 ;
1098 [label="X[0] <= 59.5\ngini = 0.469\nsamples = 8\nvalue = [3, 5]"] ;
1096 -> 1098 ;
1099 [label="gini = 0.375\nsamples = 4\nvalue = [1, 3]"] ;
1098 -> 1099 ;
1100 [label="gini = 0.5\nsamples = 4\nvalue = [2, 2]"] ;
1098 -> 1100 ;
1101 [label="gini = 0.0\nsamples = 1\nvalue = [1, 0]"] ;
1095 -> 1101 ;
1102 [label="X[0] <= 38.0\ngini = 0.49\nsamples = 42\nvalue = [24, 18]"] ;
912 -> 1102 ;
1103 [label="X[0] <= 32.5\ngini = 0.165\nsamples = 11\nvalue = [10, 1]"] ;
1102 -> 1103 ;
1104 [label="gini = 0.0\nsamples = 5\nvalue = [5, 0]"] ;
1103 -> 1104 ;
1105 [label="X[0] <= 33.5\ngini = 0.278\nsamples = 6\nvalue = [5, 1]"] ;
1103 -> 1105 ;
1106 [label="gini = 0.0\nsamples = 1\nvalue = [0, 1]"] ;
1105 -> 1106 ;
1107 [label="gini = 0.0\nsamples = 5\nvalue = [5, 0]"] ;
1105 -> 1107 ;
1108 [label="X[6] <= 11.0\ngini = 0.495\nsamples = 31\nvalue = [14, 17]"] ;
1102 -> 1108 ;
1109 [label="gini = 0.0\nsamples = 2\nvalue = [2, 0]"] ;
1108 -> 1109 ;
1110 [label="X[0] <= 53.5\ngini = 0.485\nsamples = 29\nvalue = [12, 17]"] ;
1108 -> 1110 ;
1111 [label="X[0] <= 47.5\ngini = 0.454\nsamples = 23\nvalue = [8, 15]"] ;
1110 -> 1111 ;
1112 [label="X[0] <= 43.5\ngini = 0.498\nsamples = 15\nvalue = [7, 8]"] ;
1111 -> 1112 ;
1113 [label="X[4] <= 1.0\ngini = 0.463\nsamples = 11\nvalue = [4, 7]"] ;
1112 -> 1113 ;
1114 [label="gini = 0.0\nsamples = 1\nvalue = [1, 0]"] ;
1113 -> 1114 ;
1115 [label="X[6] <= 30.5\ngini = 0.42\nsamples = 10\nvalue = [3, 7]"] ;
1113 -> 1115 ;
1116 [label="gini = 0.0\nsamples = 1\nvalue = [0, 1]"] ;
1115 -> 1116 ;
1117 [label="X[0] <= 39.5\ngini = 0.444\nsamples = 9\nvalue = [3, 6]"] ;
1115 -> 1117 ;
1118 [label="gini = 0.0\nsamples = 1\nvalue = [0, 1]"] ;
1117 -> 1118 ;
1119 [label="X[0] <= 42.5\ngini = 0.469\nsamples = 8\nvalue = [3, 5]"] ;
1117 -> 1119 ;
1120 [label="X[4] <= 3.0\ngini = 0.5\nsamples = 4\nvalue = [2, 2]"] ;
1119 -> 1120 ;
1121 [label="gini = 0.0\nsamples = 1\nvalue = [1, 0]"] ;
1120 -> 1121 ;
1122 [label="X[0] <= 41.5\ngini = 0.444\nsamples = 3\nvalue = [1, 2]"] ;
1120 -> 1122 ;
1123 [label="gini = 0.0\nsamples = 2\nvalue = [0, 2]"] ;
1122 -> 1123 ;
1124 [label="gini = 0.0\nsamples = 1\nvalue = [1, 0]"] ;
1122 -> 1124 ;
1125 [label="X[4] <= 3.0\ngini = 0.375\nsamples = 4\nvalue = [1, 3]"] ;
1119 -> 1125 ;
1126 [label="gini = 0.0\nsamples = 1\nvalue = [0, 1]"] ;
1125 -> 1126 ;
1127 [label="gini = 0.444\nsamples = 3\nvalue = [1, 2]"] ;
1125 -> 1127 ;
1128 [label="X[3] <= 782.0\ngini = 0.375\nsamples = 4\nvalue = [3, 1]"] ;
1112 -> 1128 ;
1129 [label="gini = 0.0\nsamples = 3\nvalue = [3, 0]"] ;
1128 -> 1129 ;
1130 [label="gini = 0.0\nsamples = 1\nvalue = [0, 1]"] ;
1128 -> 1130 ;
1131 [label="X[0] <= 49.5\ngini = 0.219\nsamples = 8\nvalue = [1, 7]"] ;
1111 -> 1131 ;
1132 [label="gini = 0.0\nsamples = 3\nvalue = [0, 3]"] ;
1131 -> 1132 ;
1133 [label="X[0] <= 50.5\ngini = 0.32\nsamples = 5\nvalue = [1, 4]"] ;
1131 -> 1133 ;
1134 [label="gini = 0.5\nsamples = 2\nvalue = [1, 1]"] ;
1133 -> 1134 ;
1135 [label="gini = 0.0\nsamples = 3\nvalue = [0, 3]"] ;
1133 -> 1135 ;
1136 [label="X[0] <= 57.5\ngini = 0.444\nsamples = 6\nvalue = [4, 2]"] ;
1110 -> 1136 ;
1137 [label="gini = 0.0\nsamples = 4\nvalue = [4, 0]"] ;
1136 -> 1137 ;
1138 [label="gini = 0.0\nsamples = 2\nvalue = [0, 2]"] ;
1136 -> 1138 ;
1139 [label="X[0] <= 85.5\ngini = 0.117\nsamples = 48\nvalue = [45, 3]"] ;
911 -> 1139 ;
1140 [label="X[0] <= 63.5\ngini = 0.085\nsamples = 45\nvalue = [43, 2]"] ;
1139 -> 1140 ;
1141 [label="X[0] <= 61.5\ngini = 0.188\nsamples = 19\nvalue = [17, 2]"] ;
1140 -> 1141 ;
1142 [label="gini = 0.0\nsamples = 8\nvalue = [8, 0]"] ;
1141 -> 1142 ;
1143 [label="X[4] <= 3.0\ngini = 0.298\nsamples = 11\nvalue = [9, 2]"] ;
1141 -> 1143 ;
1144 [label="gini = 0.0\nsamples = 2\nvalue = [2, 0]"] ;
1143 -> 1144 ;
1145 [label="X[0] <= 62.5\ngini = 0.346\nsamples = 9\nvalue = [7, 2]"] ;
1143 -> 1145 ;
1146 [label="X[6] <= 29.5\ngini = 0.278\nsamples = 6\nvalue = [5, 1]"] ;
1145 -> 1146 ;
1147 [label="gini = 0.0\nsamples = 1\nvalue = [1, 0]"] ;
1146 -> 1147 ;
1148 [label="X[3] <= 629.0\ngini = 0.32\nsamples = 5\nvalue = [4, 1]"] ;
1146 -> 1148 ;
1149 [label="gini = 0.375\nsamples = 4\nvalue = [3, 1]"] ;
1148 -> 1149 ;
1150 [label="gini = 0.0\nsamples = 1\nvalue = [1, 0]"] ;
1148 -> 1150 ;
1151 [label="gini = 0.444\nsamples = 3\nvalue = [2, 1]"] ;
1145 -> 1151 ;
1152 [label="gini = 0.0\nsamples = 26\nvalue = [26, 0]"] ;
1140 -> 1152 ;
1153 [label="X[6] <= 24.0\ngini = 0.444\nsamples = 3\nvalue = [2, 1]"] ;
1139 -> 1153 ;
1154 [label="gini = 0.0\nsamples = 1\nvalue = [0, 1]"] ;
1153 -> 1154 ;
1155 [label="gini = 0.0\nsamples = 2\nvalue = [2, 0]"] ;
1153 -> 1155 ;
1156 [label="X[2] <= 4973.5\ngini = 0.375\nsamples = 8\nvalue = [2, 6]"] ;
910 -> 1156 ;
1157 [label="gini = 0.0\nsamples = 6\nvalue = [0, 6]"] ;
1156 -> 1157 ;
1158 [label="gini = 0.0\nsamples = 2\nvalue = [2, 0]"] ;
1156 -> 1158 ;
1159 [label="X[1] <= 11.5\ngini = 0.178\nsamples = 3061\nvalue = [2759, 302]"] ;
733 -> 1159 ;
1160 [label="X[2] <= 4243.5\ngini = 0.132\nsamples = 1669\nvalue = [1550, 119]"] ;
1159 -> 1160 ;
1161 [label="X[4] <= 3.5\ngini = 0.129\nsamples = 1659\nvalue = [1544, 115]"] ;
1160 -> 1161 ;
1162 [label="X[4] <= 1.5\ngini = 0.052\nsamples = 372\nvalue = [362, 10]"] ;
1161 -> 1162 ;
1163 [label="X[6] <= 21.5\ngini = 0.14\nsamples = 53\nvalue = [49, 4]"] ;
1162 -> 1163 ;
1164 [label="X[6] <= 11.0\ngini = 0.375\nsamples = 8\nvalue = [6, 2]"] ;
1163 -> 1164 ;
1165 [label="X[0] <= 40.5\ngini = 0.245\nsamples = 7\nvalue = [6, 1]"] ;
1164 -> 1165 ;
1166 [label="gini = 0.0\nsamples = 4\nvalue = [4, 0]"] ;
1165 -> 1166 ;
1167 [label="X[0] <= 47.0\ngini = 0.444\nsamples = 3\nvalue = [2, 1]"] ;
1165 -> 1167 ;
1168 [label="gini = 0.0\nsamples = 1\nvalue = [0, 1]"] ;
1167 -> 1168 ;
1169 [label="gini = 0.0\nsamples = 2\nvalue = [2, 0]"] ;
1167 -> 1169 ;
1170 [label="gini = 0.0\nsamples = 1\nvalue = [0, 1]"] ;
1164 -> 1170 ;
1171 [label="X[0] <= 51.5\ngini = 0.085\nsamples = 45\nvalue = [43, 2]"] ;
1163 -> 1171 ;
1172 [label="X[6] <= 35.5\ngini = 0.053\nsamples = 37\nvalue = [36, 1]"] ;
1171 -> 1172 ;
1173 [label="X[6] <= 32.5\ngini = 0.133\nsamples = 14\nvalue = [13, 1]"] ;
1172 -> 1173 ;
1174 [label="gini = 0.0\nsamples = 8\nvalue = [8, 0]"] ;
1173 -> 1174 ;
1175 [label="X[0] <= 40.0\ngini = 0.278\nsamples = 6\nvalue = [5, 1]"] ;
1173 -> 1175 ;
1176 [label="X[0] <= 36.5\ngini = 0.444\nsamples = 3\nvalue = [2, 1]"] ;
1175 -> 1176 ;
1177 [label="gini = 0.0\nsamples = 2\nvalue = [2, 0]"] ;
1176 -> 1177 ;
1178 [label="gini = 0.0\nsamples = 1\nvalue = [0, 1]"] ;
1176 -> 1178 ;
1179 [label="gini = 0.0\nsamples = 3\nvalue = [3, 0]"] ;
1175 -> 1179 ;
1180 [label="gini = 0.0\nsamples = 23\nvalue = [23, 0]"] ;
1172 -> 1180 ;
1181 [label="X[0] <= 54.0\ngini = 0.219\nsamples = 8\nvalue = [7, 1]"] ;
1171 -> 1181 ;
1182 [label="gini = 0.0\nsamples = 1\nvalue = [0, 1]"] ;
1181 -> 1182 ;
1183 [label="gini = 0.0\nsamples = 7\nvalue = [7, 0]"] ;
1181 -> 1183 ;
1184 [label="X[0] <= 42.5\ngini = 0.037\nsamples = 319\nvalue = [313, 6]"] ;
1162 -> 1184 ;
1185 [label="X[0] <= 35.5\ngini = 0.011\nsamples = 179\nvalue = [178, 1]"] ;
1184 -> 1185 ;
1186 [label="X[0] <= 34.5\ngini = 0.023\nsamples = 87\nvalue = [86, 1]"] ;
1185 -> 1186 ;
1187 [label="gini = 0.0\nsamples = 69\nvalue = [69, 0]"] ;
1186 -> 1187 ;
1188 [label="X[6] <= 31.0\ngini = 0.105\nsamples = 18\nvalue = [17, 1]"] ;
1186 -> 1188 ;
1189 [label="gini = 0.0\nsamples = 2\nvalue = [2, 0]"] ;
1188 -> 1189 ;
1190 [label="X[3] <= 797.0\ngini = 0.117\nsamples = 16\nvalue = [15, 1]"] ;
1188 -> 1190 ;
1191 [label="gini = 0.124\nsamples = 15\nvalue = [14, 1]"] ;
1190 -> 1191 ;
1192 [label="gini = 0.0\nsamples = 1\nvalue = [1, 0]"] ;
1190 -> 1192 ;
1193 [label="gini = 0.0\nsamples = 92\nvalue = [92, 0]"] ;
1185 -> 1193 ;
1194 [label="X[0] <= 50.5\ngini = 0.069\nsamples = 140\nvalue = [135, 5]"] ;
1184 -> 1194 ;
1195 [label="X[0] <= 49.5\ngini = 0.124\nsamples = 75\nvalue = [70, 5]"] ;
1194 -> 1195 ;
1196 [label="X[0] <= 47.5\ngini = 0.111\nsamples = 68\nvalue = [64, 4]"] ;
1195 -> 1196 ;
1197 [label="X[0] <= 46.5\ngini = 0.142\nsamples = 52\nvalue = [48, 4]"] ;
1196 -> 1197 ;
1198 [label="X[0] <= 43.5\ngini = 0.097\nsamples = 39\nvalue = [37, 2]"] ;
1197 -> 1198 ;
1199 [label="X[3] <= 881.0\ngini = 0.165\nsamples = 11\nvalue = [10, 1]"] ;
1198 -> 1199 ;
1200 [label="gini = 0.18\nsamples = 10\nvalue = [9, 1]"] ;
1199 -> 1200 ;
1201 [label="gini = 0.0\nsamples = 1\nvalue = [1, 0]"] ;
1199 -> 1201 ;
1202 [label="X[0] <= 44.5\ngini = 0.069\nsamples = 28\nvalue = [27, 1]"] ;
1198 -> 1202 ;
1203 [label="gini = 0.0\nsamples = 9\nvalue = [9, 0]"] ;
1202 -> 1203 ;
1204 [label="X[0] <= 45.5\ngini = 0.1\nsamples = 19\nvalue = [18, 1]"] ;
1202 -> 1204 ;
1205 [label="gini = 0.153\nsamples = 12\nvalue = [11, 1]"] ;
1204 -> 1205 ;
1206 [label="gini = 0.0\nsamples = 7\nvalue = [7, 0]"] ;
1204 -> 1206 ;
1207 [label="X[6] <= 36.0\ngini = 0.26\nsamples = 13\nvalue = [11, 2]"] ;
1197 -> 1207 ;
1208 [label="gini = 0.0\nsamples = 2\nvalue = [2, 0]"] ;
1207 -> 1208 ;
1209 [label="gini = 0.298\nsamples = 11\nvalue = [9, 2]"] ;
1207 -> 1209 ;
1210 [label="gini = 0.0\nsamples = 16\nvalue = [16, 0]"] ;
1196 -> 1210 ;
1211 [label="gini = 0.245\nsamples = 7\nvalue = [6, 1]"] ;
1195 -> 1211 ;
1212 [label="gini = 0.0\nsamples = 65\nvalue = [65, 0]"] ;
1194 -> 1212 ;
1213 [label="X[0] <= 48.5\ngini = 0.15\nsamples = 1287\nvalue = [1182, 105]"] ;
1161 -> 1213 ;
1214 [label="X[0] <= 42.5\ngini = 0.176\nsamples = 798\nvalue = [720, 78]"] ;
1213 -> 1214 ;
1215 [label="X[0] <= 30.5\ngini = 0.149\nsamples = 554\nvalue = [509, 45]"] ;
1214 -> 1215 ;
1216 [label="X[6] <= 36.0\ngini = 0.04\nsamples = 49\nvalue = [48, 1]"] ;
1215 -> 1216 ;
1217 [label="gini = 0.0\nsamples = 2\nvalue = [2, 0]"] ;
1216 -> 1217 ;
1218 [label="X[3] <= 801.0\ngini = 0.042\nsamples = 47\nvalue = [46, 1]"] ;
1216 -> 1218 ;
1219 [label="gini = 0.043\nsamples = 45\nvalue = [44, 1]"] ;
1218 -> 1219 ;
1220 [label="gini = 0.0\nsamples = 2\nvalue = [2, 0]"] ;
1218 -> 1220 ;
1221 [label="X[0] <= 40.5\ngini = 0.159\nsamples = 505\nvalue = [461, 44]"] ;
1215 -> 1221 ;
1222 [label="X[0] <= 34.5\ngini = 0.169\nsamples = 429\nvalue = [389, 40]"] ;
1221 -> 1222 ;
1223 [label="X[6] <= 5.0\ngini = 0.131\nsamples = 185\nvalue = [172, 13]"] ;
1222 -> 1223 ;
1224 [label="X[6] <= 1.0\ngini = 0.444\nsamples = 3\nvalue = [2, 1]"] ;
1223 -> 1224 ;
1225 [label="gini = 0.0\nsamples = 2\nvalue = [2, 0]"] ;
1224 -> 1225 ;
1226 [label="gini = 0.0\nsamples = 1\nvalue = [0, 1]"] ;
1224 -> 1226 ;
1227 [label="X[6] <= 32.5\ngini = 0.123\nsamples = 182\nvalue = [170, 12]"] ;
1223 -> 1227 ;
1228 [label="gini = 0.0\nsamples = 8\nvalue = [8, 0]"] ;
1227 -> 1228 ;
1229 [label="X[3] <= 569.0\ngini = 0.128\nsamples = 174\nvalue = [162, 12]"] ;
1227 -> 1229 ;
1230 [label="X[2] <= 527.5\ngini = 0.133\nsamples = 167\nvalue = [155, 12]"] ;
1229 -> 1230 ;
1231 [label="X[0] <= 32.5\ngini = 0.136\nsamples = 163\nvalue = [151, 12]"] ;
1230 -> 1231 ;
1232 [label="X[0] <= 31.5\ngini = 0.153\nsamples = 84\nvalue = [77, 7]"] ;
1231 -> 1232 ;
